{"inputLayer":{"Values":[0.124706827,0.118708864,0.124951817,0.0,0.0,0.0,0.0,0.0,0.751367033,0.0,0.0,0.0161046777,0.0155601539,0.0151225,0.0147788115,0.0145195508,0.0143378684,0.0142291337,0.0141906412,0.0142214447,0.0143223023,0.0144957174,0.0147460951,0.01508002,0.0155067043,0.0160386376,0.01669255,0.01749087,0.0184638239,0.0196527448],"Storage":{"Data":[0.124706827,0.118708864,0.124951817,0.0,0.0,0.0,0.0,0.0,0.751367033,0.0,0.0,0.0161046777,0.0155601539,0.0151225,0.0147788115,0.0145195508,0.0143378684,0.0142291337,0.0141906412,0.0142214447,0.0143223023,0.0144957174,0.0147460951,0.01508002,0.0155067043,0.0160386376,0.01669255,0.01749087,0.0184638239,0.0196527448],"RowCount":1,"ColumnCount":30},"ColumnCount":30,"RowCount":1},"hiddenLayers":[{"Values":[-0.535270751,-0.6186399,-0.375864118,-0.79128176,-0.5184478,-0.8387369,0.05187797,-0.5088435,0.180479169,-0.5329404],"Storage":{"Data":[-0.535270751,-0.6186399,-0.375864118,-0.79128176,-0.5184478,-0.8387369,0.05187797,-0.5088435,0.180479169,-0.5329404],"RowCount":1,"ColumnCount":10},"ColumnCount":10,"RowCount":1},{"Values":[0.990497768,0.382096857,-0.9627814,-0.159144327,-0.298337668,-0.4001822,0.4762908,0.557293057,-0.233048186,0.144152522],"Storage":{"Data":[0.990497768,0.382096857,-0.9627814,-0.159144327,-0.298337668,-0.4001822,0.4762908,0.557293057,-0.233048186,0.144152522],"RowCount":1,"ColumnCount":10},"ColumnCount":10,"RowCount":1},{"Values":[0.828563869,-0.441943645,0.537349,-0.4491071,0.153380871,0.03080003,0.9268953,0.3998972,-0.9955718,-0.9581108],"Storage":{"Data":[0.828563869,-0.441943645,0.537349,-0.4491071,0.153380871,0.03080003,0.9268953,0.3998972,-0.9955718,-0.9581108],"RowCount":1,"ColumnCount":10},"ColumnCount":10,"RowCount":1}],"outputLayer":{"Values":[-0.215500236,-0.3737944],"Storage":{"Data":[-0.215500236,-0.3737944],"RowCount":1,"ColumnCount":2},"ColumnCount":2,"RowCount":1},"weights":[{"Values":[0.7220597,0.126003861,-0.764804363,0.953790665,-0.147651076,0.802874565,0.5538168,0.157644153,-0.07688773,0.0143433809,-0.5609126,0.05032122,0.777838469,0.388979644,-0.7083359,-0.9044235,-0.113884568,-0.5420518,-0.249721408,0.38158223,-0.05379808,-0.3307718,-0.342379451,-0.9030986,-0.6822016,-0.9081838,0.947654963,-0.8029094,-0.5810199,-0.5414562,-0.873438358,-0.8028269,0.5057833,-0.6153178,0.688409567,-0.373865247,-0.353577971,-0.726085663,-0.24206984,-0.5472336,0.74760437,0.797217369,0.502073765,0.667795658,0.570242643,-0.46960938,0.6967094,-0.126631618,0.00162994862,-0.3080374,0.515109539,0.787596941,-0.843665838,-0.291108251,0.47746107,0.613788843,0.836360931,-0.954125166,0.106181979,0.6824982,0.3288488,0.402006835,0.537148237,0.147489429,0.186771512,0.203279614,0.444672316,0.643676043,-0.10972178,-0.155161738,0.3559179,-0.23210609,-0.7120125,-0.117565274,0.724660635,0.8381443,-0.108314872,0.6720681,-0.5361521,0.5178757,-0.360128045,-0.193793178,-0.472230077,0.2910287,0.323065966,0.521785736,0.8245704,-0.4474491,-0.4725114,-0.753530264,0.8121095,0.1859895,0.17510283,-0.7007284,0.983878136,0.459263533,0.119193435,-0.86402607,-0.9940386,0.9640713,0.447493047,0.9054308,0.6003413,-0.9159925,0.8624966,-0.768871546,-0.825984955,-0.9911647,-0.0351015329,-0.867784262,-0.5372565,0.304628581,-0.4312836,-0.313675046,0.3713319,0.7431805,-0.161233068,0.9034498,0.009342074,0.2685139,0.7318363,0.128886342,-0.67388463,0.900479555,0.9022174,-0.169315457,-0.2658919,-0.259150624,-0.13531816,-0.4641446,0.24935472,-0.845209837,0.04342377,0.0106605291,0.09823024,0.630085468,-0.36912024,-0.499852061,-0.7603338,0.924754143,-0.80775094,-0.622054338,0.6455748,-0.08063209,-0.9014983,0.271909684,0.5742829,-0.5916498,0.7713516,-0.322110772,-0.6769328,0.2063371,-0.7888813,0.9651301,0.1341356,0.111874461,0.534623861,0.137822747,-0.7417586,-0.2812773,-0.94599247,0.764047146,0.4193296,0.294291228,-0.6964998,0.160215735,0.5730791,-0.869473,-0.509084463,-0.6801646,-0.5857403,-0.9312372,0.16851294,0.134617209,-0.029019475,0.719101667,0.437032431,-0.191167951,-0.321642041,-0.9728143,-0.353237271,0.0440670252,0.196391225,-0.7364638,0.6173153,-0.0743507147,0.690211058,-0.07049811,0.6032605,-0.7735877,-0.108368039,0.9553199,0.8022773,0.160009742,-0.214481473,-0.287278056,0.7185955,0.4124286,0.8407264,0.5928292,-0.272854447,0.1511401,0.121448874,-0.7992723,0.09149802,0.457205743,-0.3761183,0.08162415,0.9045718,0.6495271,-0.117354035,-0.1746391,-0.347094417,-0.625205755,-0.336080432,0.402034968,-0.2008692,0.8312137,-0.1015569,-0.5853424,0.433082074,-0.8096876,-0.657091856,0.9502981,-0.504846334,0.6789713,0.239753366,0.4835026,0.298767537,-0.008638978,0.0914109945,-0.622448444,0.849859953,0.1722995,0.5931475,0.00173652172,-0.104331136,0.569753647,0.5873163,0.924059153,0.5134537,0.252766818,-0.860164165,0.4934773,0.463829726,0.8052032,-0.6924784,-0.137755752,0.943055153,-0.374192357,0.40375945,-0.347730756,-0.939021349,0.540457249,-0.306843877,-0.0577956438,0.58847,-0.271353126,0.124729991,-0.224713922,0.6646445,0.6018834,-0.7252631,0.189964414,-0.5922632,-0.614680052,-0.599968433,-0.05416882,0.240105271,-0.7788384,0.829038858,-0.06256163,-0.583775043,0.8684335,0.908870459,0.956732035,0.694918633,-0.38264668,-0.135180593,-0.79271245,-0.6110904,0.667308569,-0.2026974,-0.1808058,-0.8251436,0.12670958,-0.593635559,0.10634625,-0.318624854,-0.605253458,0.38766548,-0.981372833,-0.429615617,0.447108,0.116664767,-0.875593662,0.130341649,0.396050423,-0.742502,0.1514076],"Storage":{"Data":[0.7220597,0.126003861,-0.764804363,0.953790665,-0.147651076,0.802874565,0.5538168,0.157644153,-0.07688773,0.0143433809,-0.5609126,0.05032122,0.777838469,0.388979644,-0.7083359,-0.9044235,-0.113884568,-0.5420518,-0.249721408,0.38158223,-0.05379808,-0.3307718,-0.342379451,-0.9030986,-0.6822016,-0.9081838,0.947654963,-0.8029094,-0.5810199,-0.5414562,-0.873438358,-0.8028269,0.5057833,-0.6153178,0.688409567,-0.373865247,-0.353577971,-0.726085663,-0.24206984,-0.5472336,0.74760437,0.797217369,0.502073765,0.667795658,0.570242643,-0.46960938,0.6967094,-0.126631618,0.00162994862,-0.3080374,0.515109539,0.787596941,-0.843665838,-0.291108251,0.47746107,0.613788843,0.836360931,-0.954125166,0.106181979,0.6824982,0.3288488,0.402006835,0.537148237,0.147489429,0.186771512,0.203279614,0.444672316,0.643676043,-0.10972178,-0.155161738,0.3559179,-0.23210609,-0.7120125,-0.117565274,0.724660635,0.8381443,-0.108314872,0.6720681,-0.5361521,0.5178757,-0.360128045,-0.193793178,-0.472230077,0.2910287,0.323065966,0.521785736,0.8245704,-0.4474491,-0.4725114,-0.753530264,0.8121095,0.1859895,0.17510283,-0.7007284,0.983878136,0.459263533,0.119193435,-0.86402607,-0.9940386,0.9640713,0.447493047,0.9054308,0.6003413,-0.9159925,0.8624966,-0.768871546,-0.825984955,-0.9911647,-0.0351015329,-0.867784262,-0.5372565,0.304628581,-0.4312836,-0.313675046,0.3713319,0.7431805,-0.161233068,0.9034498,0.009342074,0.2685139,0.7318363,0.128886342,-0.67388463,0.900479555,0.9022174,-0.169315457,-0.2658919,-0.259150624,-0.13531816,-0.4641446,0.24935472,-0.845209837,0.04342377,0.0106605291,0.09823024,0.630085468,-0.36912024,-0.499852061,-0.7603338,0.924754143,-0.80775094,-0.622054338,0.6455748,-0.08063209,-0.9014983,0.271909684,0.5742829,-0.5916498,0.7713516,-0.322110772,-0.6769328,0.2063371,-0.7888813,0.9651301,0.1341356,0.111874461,0.534623861,0.137822747,-0.7417586,-0.2812773,-0.94599247,0.764047146,0.4193296,0.294291228,-0.6964998,0.160215735,0.5730791,-0.869473,-0.509084463,-0.6801646,-0.5857403,-0.9312372,0.16851294,0.134617209,-0.029019475,0.719101667,0.437032431,-0.191167951,-0.321642041,-0.9728143,-0.353237271,0.0440670252,0.196391225,-0.7364638,0.6173153,-0.0743507147,0.690211058,-0.07049811,0.6032605,-0.7735877,-0.108368039,0.9553199,0.8022773,0.160009742,-0.214481473,-0.287278056,0.7185955,0.4124286,0.8407264,0.5928292,-0.272854447,0.1511401,0.121448874,-0.7992723,0.09149802,0.457205743,-0.3761183,0.08162415,0.9045718,0.6495271,-0.117354035,-0.1746391,-0.347094417,-0.625205755,-0.336080432,0.402034968,-0.2008692,0.8312137,-0.1015569,-0.5853424,0.433082074,-0.8096876,-0.657091856,0.9502981,-0.504846334,0.6789713,0.239753366,0.4835026,0.298767537,-0.008638978,0.0914109945,-0.622448444,0.849859953,0.1722995,0.5931475,0.00173652172,-0.104331136,0.569753647,0.5873163,0.924059153,0.5134537,0.252766818,-0.860164165,0.4934773,0.463829726,0.8052032,-0.6924784,-0.137755752,0.943055153,-0.374192357,0.40375945,-0.347730756,-0.939021349,0.540457249,-0.306843877,-0.0577956438,0.58847,-0.271353126,0.124729991,-0.224713922,0.6646445,0.6018834,-0.7252631,0.189964414,-0.5922632,-0.614680052,-0.599968433,-0.05416882,0.240105271,-0.7788384,0.829038858,-0.06256163,-0.583775043,0.8684335,0.908870459,0.956732035,0.694918633,-0.38264668,-0.135180593,-0.79271245,-0.6110904,0.667308569,-0.2026974,-0.1808058,-0.8251436,0.12670958,-0.593635559,0.10634625,-0.318624854,-0.605253458,0.38766548,-0.981372833,-0.429615617,0.447108,0.116664767,-0.875593662,0.130341649,0.396050423,-0.742502,0.1514076],"RowCount":30,"ColumnCount":10},"ColumnCount":10,"RowCount":30},{"Values":[-0.6873038,-0.7381234,-0.645082,0.06357992,-0.9459009,-0.7785554,-0.926727057,-0.533258438,0.369763345,-0.5944493,0.6103425,-0.3703853,0.0872801542,0.28440854,-0.00279295444,-0.9663117,0.08869207,0.277865142,0.5606868,-0.142945647,-0.4749149,-0.8113773,0.5892308,0.7405498,0.9337809,0.463349074,0.368579119,0.9054966,-0.469368815,0.821260452,-0.8725138,0.9886868,-0.466187835,-0.8567388,0.823725462,0.6640551,-0.7860131,-0.8429911,0.222871661,0.410607785,-0.132532477,0.9015143,-0.399286866,-0.555443048,-0.326448083,0.2816927,0.266672581,0.389167517,-0.180326343,0.0603634119,-0.70664,0.786566,0.428548068,0.3030357,-0.60778904,0.868431568,0.5397799,0.09359753,0.9333463,-0.8338504,-0.6131878,0.3046796,-0.652795553,-0.123718858,-0.207230687,-0.745102644,-0.905490637,-0.119422078,-0.481723666,0.9934819,-0.980463,-0.213302255,0.1429671,-0.407112241,0.0955027342,0.159673572,0.727520466,-0.205274463,0.2667503,0.3913972,-0.8529136,0.106379151,0.168338418,-0.5162487,-0.5905185,0.895271063,0.5783491,0.6529579,0.105190158,0.28290388,-0.4163102,-0.216821074,-0.2314049,-0.351234555,0.6966257,0.0315464735,-0.849370241,0.555712,-0.294318557,-0.5356128],"Storage":{"Data":[-0.6873038,-0.7381234,-0.645082,0.06357992,-0.9459009,-0.7785554,-0.926727057,-0.533258438,0.369763345,-0.5944493,0.6103425,-0.3703853,0.0872801542,0.28440854,-0.00279295444,-0.9663117,0.08869207,0.277865142,0.5606868,-0.142945647,-0.4749149,-0.8113773,0.5892308,0.7405498,0.9337809,0.463349074,0.368579119,0.9054966,-0.469368815,0.821260452,-0.8725138,0.9886868,-0.466187835,-0.8567388,0.823725462,0.6640551,-0.7860131,-0.8429911,0.222871661,0.410607785,-0.132532477,0.9015143,-0.399286866,-0.555443048,-0.326448083,0.2816927,0.266672581,0.389167517,-0.180326343,0.0603634119,-0.70664,0.786566,0.428548068,0.3030357,-0.60778904,0.868431568,0.5397799,0.09359753,0.9333463,-0.8338504,-0.6131878,0.3046796,-0.652795553,-0.123718858,-0.207230687,-0.745102644,-0.905490637,-0.119422078,-0.481723666,0.9934819,-0.980463,-0.213302255,0.1429671,-0.407112241,0.0955027342,0.159673572,0.727520466,-0.205274463,0.2667503,0.3913972,-0.8529136,0.106379151,0.168338418,-0.5162487,-0.5905185,0.895271063,0.5783491,0.6529579,0.105190158,0.28290388,-0.4163102,-0.216821074,-0.2314049,-0.351234555,0.6966257,0.0315464735,-0.849370241,0.555712,-0.294318557,-0.5356128],"RowCount":10,"ColumnCount":10},"ColumnCount":10,"RowCount":10},{"Values":[0.184299588,0.77541995,-0.3845197,0.2870092,0.07253444,0.5944655,0.349471778,0.486128539,-0.619669437,0.821775436,-0.9251089,0.999430656,-0.960301638,-0.484141469,0.8210659,0.7209017,-0.8575232,-0.3684758,-0.920306444,0.3570635,-0.8434639,-0.5853174,-0.736423,0.201002955,0.1782223,-0.474371552,0.9108665,0.7977483,-0.226617217,-0.172509551,0.981648445,-0.9862454,0.8359959,0.212045312,-0.315281272,-0.371585727,-0.510164738,-0.269780517,0.399362534,0.4421923,0.867477655,0.9363611,0.90334487,0.9877105,0.9713955,-0.6430776,-0.91766715,0.3650739,-0.855363369,0.63662076,-0.0207694769,-0.483979344,-0.5970824,-0.170717835,0.9227135,-0.234354138,0.157632709,0.10842073,0.657100439,-0.7357092,0.8531883,0.126137614,-0.7426226,-0.473847747,0.514174938,-0.254899859,-0.712684631,0.438111037,-0.125285745,0.9034345,0.9709101,0.8306122,0.252673835,0.0514215231,0.2642772,-0.07705748,-0.487779021,-0.529899836,0.03798306,0.284064025,-0.6339457,-0.961228132,0.7767806,-0.2489258,0.520764351,0.5463915,-0.668211937,-0.562101364,0.624223,-0.97353816,-0.748441935,-0.232124448,0.141214967,-0.757711649,0.385244817,0.2091769,-0.19693172,-0.9249704,0.790519,-0.168391109],"Storage":{"Data":[0.184299588,0.77541995,-0.3845197,0.2870092,0.07253444,0.5944655,0.349471778,0.486128539,-0.619669437,0.821775436,-0.9251089,0.999430656,-0.960301638,-0.484141469,0.8210659,0.7209017,-0.8575232,-0.3684758,-0.920306444,0.3570635,-0.8434639,-0.5853174,-0.736423,0.201002955,0.1782223,-0.474371552,0.9108665,0.7977483,-0.226617217,-0.172509551,0.981648445,-0.9862454,0.8359959,0.212045312,-0.315281272,-0.371585727,-0.510164738,-0.269780517,0.399362534,0.4421923,0.867477655,0.9363611,0.90334487,0.9877105,0.9713955,-0.6430776,-0.91766715,0.3650739,-0.855363369,0.63662076,-0.0207694769,-0.483979344,-0.5970824,-0.170717835,0.9227135,-0.234354138,0.157632709,0.10842073,0.657100439,-0.7357092,0.8531883,0.126137614,-0.7426226,-0.473847747,0.514174938,-0.254899859,-0.712684631,0.438111037,-0.125285745,0.9034345,0.9709101,0.8306122,0.252673835,0.0514215231,0.2642772,-0.07705748,-0.487779021,-0.529899836,0.03798306,0.284064025,-0.6339457,-0.961228132,0.7767806,-0.2489258,0.520764351,0.5463915,-0.668211937,-0.562101364,0.624223,-0.97353816,-0.748441935,-0.232124448,0.141214967,-0.757711649,0.385244817,0.2091769,-0.19693172,-0.9249704,0.790519,-0.168391109],"RowCount":10,"ColumnCount":10},"ColumnCount":10,"RowCount":10},{"Values":[-0.7518172,0.09471357,-0.5076573,-0.1635536,-0.759858131,0.8895848,-0.199637055,-0.729892254,-0.422674775,0.6145294,-0.262040973,0.906067133,-0.971228838,-0.516545057,-0.5878856,-0.645705938,-0.3930229,0.388366669,0.8260498,0.747260332,0.827811956,-0.894883633,0.677220345,0.822971344,-0.176649451,-0.1300925,0.9344101,0.536438465,0.0917049646,-0.839303255,-0.7802291,0.7924292,-0.221990466,-0.878216,0.1699599,-0.8227844,-0.215466619,-0.360424638,-0.5023706,0.301891059,-0.8094053,0.3478355,0.8058455,0.657964468,-0.675788164,0.8685143,0.9650152,0.413083285,-0.6540141,-0.2676798,0.7294543,0.916492462,-0.008347154,-0.827756643,0.193652034,0.5368769,-0.823022842,0.942727566,0.12656343,-0.311426044,0.439037055,0.453428239,0.3194432,-0.204520345,0.145393968,-0.5594008,-0.148447871,0.7929845,-0.162440419,-0.1283871,-0.635812759,-0.7309408,-0.147182822,0.258884162,0.9618521,-0.283759,-0.59254384,-0.00670540333,0.8798244,0.143992543,0.05868423,0.699403048,-0.7942188,-0.7242067,-0.05690205,0.569160461,-0.8163388,-0.165994525,-0.417372584,0.9456296,-0.6255734,0.224555612,0.08010137,-0.729794741,0.876037836,-0.0124109983,0.1221863,0.300854176,0.9326315,0.350670069],"Storage":{"Data":[-0.7518172,0.09471357,-0.5076573,-0.1635536,-0.759858131,0.8895848,-0.199637055,-0.729892254,-0.422674775,0.6145294,-0.262040973,0.906067133,-0.971228838,-0.516545057,-0.5878856,-0.645705938,-0.3930229,0.388366669,0.8260498,0.747260332,0.827811956,-0.894883633,0.677220345,0.822971344,-0.176649451,-0.1300925,0.9344101,0.536438465,0.0917049646,-0.839303255,-0.7802291,0.7924292,-0.221990466,-0.878216,0.1699599,-0.8227844,-0.215466619,-0.360424638,-0.5023706,0.301891059,-0.8094053,0.3478355,0.8058455,0.657964468,-0.675788164,0.8685143,0.9650152,0.413083285,-0.6540141,-0.2676798,0.7294543,0.916492462,-0.008347154,-0.827756643,0.193652034,0.5368769,-0.823022842,0.942727566,0.12656343,-0.311426044,0.439037055,0.453428239,0.3194432,-0.204520345,0.145393968,-0.5594008,-0.148447871,0.7929845,-0.162440419,-0.1283871,-0.635812759,-0.7309408,-0.147182822,0.258884162,0.9618521,-0.283759,-0.59254384,-0.00670540333,0.8798244,0.143992543,0.05868423,0.699403048,-0.7942188,-0.7242067,-0.05690205,0.569160461,-0.8163388,-0.165994525,-0.417372584,0.9456296,-0.6255734,0.224555612,0.08010137,-0.729794741,0.876037836,-0.0124109983,0.1221863,0.300854176,0.9326315,0.350670069],"RowCount":10,"ColumnCount":10},"ColumnCount":10,"RowCount":10},{"Values":[-0.3931626,0.111338735,-0.85609293,-0.0804084539,-0.7400601,-0.8622558,0.404161423,0.06631434,-0.339577317,0.257077664,-0.5162878,0.179722428,0.513382435,0.4619877,0.269973,0.8935659,0.547348261,-0.00604259968,0.265642375,0.5119448],"Storage":{"Data":[-0.3931626,0.111338735,-0.85609293,-0.0804084539,-0.7400601,-0.8622558,0.404161423,0.06631434,-0.339577317,0.257077664,-0.5162878,0.179722428,0.513382435,0.4619877,0.269973,0.8935659,0.547348261,-0.00604259968,0.265642375,0.5119448],"RowCount":10,"ColumnCount":2},"ColumnCount":2,"RowCount":10}],"biases":[-0.467934251,-0.09458554,-0.0605345964,0.2271117],"fitness":77.64508,"generation":0,"index":9,"parentA":null,"parentB":null,"mutatedWeights":0,"previousFitness":-1.0}