{"inputLayer":{"Values":[0.0,0.0,0.0,0.0,0.0,0.0,0.0,0.0,0.0,0.0,0.0,0.0,0.0,0.00580537831,0.005671712,0.00557059,0.00549933268,0.005456121,0.005439879,0.005450206,0.00548735727,0.005552253,0.005646541,0.005772695,0.00593418535,0.00613572355,0.006383626,0.006686348,0.0070552933,0.00750603434],"Storage":{"Data":[0.0,0.0,0.0,0.0,0.0,0.0,0.0,0.0,0.0,0.0,0.0,0.0,0.0,0.00580537831,0.005671712,0.00557059,0.00549933268,0.005456121,0.005439879,0.005450206,0.00548735727,0.005552253,0.005646541,0.005772695,0.00593418535,0.00613572355,0.006383626,0.006686348,0.0070552933,0.00750603434],"RowCount":1,"ColumnCount":30},"ColumnCount":30,"RowCount":1},"hiddenLayers":[{"Values":[0.3809507,0.342495561,0.381755859,0.380552858,0.36526376,0.382257134,0.380843937,0.373406738,0.377354473,0.4046371],"Storage":{"Data":[0.3809507,0.342495561,0.381755859,0.380552858,0.36526376,0.382257134,0.380843937,0.373406738,0.377354473,0.4046371],"RowCount":1,"ColumnCount":10},"ColumnCount":10,"RowCount":1},{"Values":[-0.753816664,-0.750049651,-0.79238987,0.02619859,0.25892067,-0.419488549,0.3290296,-0.688693762,-0.791495442,-0.2729082],"Storage":{"Data":[-0.753816664,-0.750049651,-0.79238987,0.02619859,0.25892067,-0.419488549,0.3290296,-0.688693762,-0.791495442,-0.2729082],"RowCount":1,"ColumnCount":10},"ColumnCount":10,"RowCount":1},{"Values":[-0.793159842,-0.8269229,-0.9790778,-0.946762741,-0.921199739,-0.732014537,0.8289513,-0.9769897,-0.3876748,-0.172068208],"Storage":{"Data":[-0.793159842,-0.8269229,-0.9790778,-0.946762741,-0.921199739,-0.732014537,0.8289513,-0.9769897,-0.3876748,-0.172068208],"RowCount":1,"ColumnCount":10},"ColumnCount":10,"RowCount":1}],"outputLayer":{"Values":[0.1937794,0.8915991],"Storage":{"Data":[0.1937794,0.8915991],"RowCount":1,"ColumnCount":2},"ColumnCount":2,"RowCount":1},"weights":[{"Values":[0.6473831,-0.8132746,0.09096372,0.106830239,1.0,-0.830899954,0.234676957,-0.176317811,0.337329119,0.276506782,0.912822,0.4234525,0.492459416,0.14486894,-0.952017546,-0.202967763,-1.0,0.2512755,-0.8244827,-0.3518628,0.9559969,-1.0,0.965770662,1.0,0.6652689,1.0,-0.325296044,-1.0,-0.07655573,1.0,-0.4291762,-0.393115073,1.0,0.0216679573,-0.335807353,-0.156534791,0.658465266,-0.4325763,0.247699618,0.531042,-0.436995864,0.340166539,-0.382394433,-0.7561903,-0.330922484,-1.0,-0.735778332,0.0407385826,-0.5298445,-0.777488232,-0.6130661,-0.635690451,-0.53824687,0.2138009,-1.0,-0.0652453,-0.2939396,-0.8275845,0.04159844,0.487923115,0.232380956,-0.9979701,-0.2754606,0.6952603,0.678036,0.374840468,0.6386107,-0.9492506,-0.12095499,0.3367724,0.144346,0.28853488,-1.0,0.9537008,0.342689872,0.0412023067,-0.07980767,0.97963357,-0.7620926,-0.224069238,0.698963165,-1.0,0.48960492,1.0,-1.0,1.0,-0.7910507,-0.6424109,-0.0435377359,-0.09201601,0.07291865,-0.761095762,-0.04643035,0.102668881,0.2687447,0.148395061,0.7811229,0.251194239,-0.029484421,0.09922278,0.7599559,0.5791919,-0.5078747,-0.0174480975,0.10765326,-0.1891253,1.0,-0.7915745,0.527313352,1.0,0.14004004,-0.782770634,0.5723953,-0.740620255,0.293212622,-0.5966606,0.114731669,-0.197942853,0.7640761,-0.625105143,-0.02020979,-0.8710463,-1.0,-0.2806654,-0.5779054,-0.3274504,0.4512564,-1.0,-0.0962293446,-1.0,0.7556694,-0.317315459,1.0,0.119267941,-0.744996548,-0.0147827864,0.726105,0.102830768,0.415966362,1.0,-0.07854903,0.3138344,-1.0,-0.301770926,-0.3963138,0.144579887,-1.0,-1.0,-1.0,0.5031297,0.270241827,0.212201715,-0.8118472,-0.133984447,0.972181559,-0.5056741,0.451064318,-0.706465,1.0,1.0,1.0,-1.0,0.6132451,0.200277448,-1.0,1.0,-0.642669439,-0.4322065,-0.2068969,1.0,0.132833481,-0.6084976,-0.6278157,-0.445777655,0.385852426,-0.2702527,0.5996374,0.5514693,0.6829748,0.109740853,-0.826555967,0.550501,-0.893600464,0.269056052,0.110001683,0.436164856,0.179823011,-0.4970342,0.06515515,-0.541677952,-0.728103757,0.79609704,0.5653182,-0.168917656,-0.8960204,0.0454876125,0.358505726,-0.6015147,0.298936248,-0.915486,0.09106004,0.7605314,0.6658807,0.6038008,-0.537951469,-0.007398486,0.336993277,-0.9483783,0.6031226,0.6059897,-1.0,-0.418568164,-0.184024572,0.8810787,1.0,-0.243789434,0.453952432,-0.00246393681,-1.0,-0.01795113,-0.512469769,-0.9229021,-0.199640036,-0.9441962,-0.03381276,-0.711112857,-0.79706,-0.7722571,-0.07680285,0.62735033,-0.8973584,0.12671566,0.806357,-0.259991437,0.835197,-0.24500072,0.7983949,0.6677338,-0.298523664,-0.0425487757,-0.5663674,-0.7952862,0.6088687,0.7060751,-0.0111218691,-1.0,-0.3664371,-0.06069851,-0.111168146,0.495246649,1.0,0.823194444,-1.0,-0.9747517,0.5494014,0.5348717,-0.333364844,0.638277769,0.08492231,-0.918755054,0.3530184,-0.1494422,0.0668215752,0.473659873,0.0499509573,0.7006608,-0.106216669,-0.512318254,0.490207434,-0.922489762,0.869585752,0.252187848,-0.584933043,1.0,0.9403492,1.0,-0.7209861,-0.763373137,-1.0,0.827613235,0.3258804,-0.0484887362,-0.120083809,-0.241657615,0.2852182,0.7388942,0.117171168,0.91395545,0.9224044,-0.180583477,0.5376831,0.7286086,0.277813643,0.315531224,-0.384385228,0.9261309,0.7381475,-0.1643771,-0.3505205,0.276212931],"Storage":{"Data":[0.6473831,-0.8132746,0.09096372,0.106830239,1.0,-0.830899954,0.234676957,-0.176317811,0.337329119,0.276506782,0.912822,0.4234525,0.492459416,0.14486894,-0.952017546,-0.202967763,-1.0,0.2512755,-0.8244827,-0.3518628,0.9559969,-1.0,0.965770662,1.0,0.6652689,1.0,-0.325296044,-1.0,-0.07655573,1.0,-0.4291762,-0.393115073,1.0,0.0216679573,-0.335807353,-0.156534791,0.658465266,-0.4325763,0.247699618,0.531042,-0.436995864,0.340166539,-0.382394433,-0.7561903,-0.330922484,-1.0,-0.735778332,0.0407385826,-0.5298445,-0.777488232,-0.6130661,-0.635690451,-0.53824687,0.2138009,-1.0,-0.0652453,-0.2939396,-0.8275845,0.04159844,0.487923115,0.232380956,-0.9979701,-0.2754606,0.6952603,0.678036,0.374840468,0.6386107,-0.9492506,-0.12095499,0.3367724,0.144346,0.28853488,-1.0,0.9537008,0.342689872,0.0412023067,-0.07980767,0.97963357,-0.7620926,-0.224069238,0.698963165,-1.0,0.48960492,1.0,-1.0,1.0,-0.7910507,-0.6424109,-0.0435377359,-0.09201601,0.07291865,-0.761095762,-0.04643035,0.102668881,0.2687447,0.148395061,0.7811229,0.251194239,-0.029484421,0.09922278,0.7599559,0.5791919,-0.5078747,-0.0174480975,0.10765326,-0.1891253,1.0,-0.7915745,0.527313352,1.0,0.14004004,-0.782770634,0.5723953,-0.740620255,0.293212622,-0.5966606,0.114731669,-0.197942853,0.7640761,-0.625105143,-0.02020979,-0.8710463,-1.0,-0.2806654,-0.5779054,-0.3274504,0.4512564,-1.0,-0.0962293446,-1.0,0.7556694,-0.317315459,1.0,0.119267941,-0.744996548,-0.0147827864,0.726105,0.102830768,0.415966362,1.0,-0.07854903,0.3138344,-1.0,-0.301770926,-0.3963138,0.144579887,-1.0,-1.0,-1.0,0.5031297,0.270241827,0.212201715,-0.8118472,-0.133984447,0.972181559,-0.5056741,0.451064318,-0.706465,1.0,1.0,1.0,-1.0,0.6132451,0.200277448,-1.0,1.0,-0.642669439,-0.4322065,-0.2068969,1.0,0.132833481,-0.6084976,-0.6278157,-0.445777655,0.385852426,-0.2702527,0.5996374,0.5514693,0.6829748,0.109740853,-0.826555967,0.550501,-0.893600464,0.269056052,0.110001683,0.436164856,0.179823011,-0.4970342,0.06515515,-0.541677952,-0.728103757,0.79609704,0.5653182,-0.168917656,-0.8960204,0.0454876125,0.358505726,-0.6015147,0.298936248,-0.915486,0.09106004,0.7605314,0.6658807,0.6038008,-0.537951469,-0.007398486,0.336993277,-0.9483783,0.6031226,0.6059897,-1.0,-0.418568164,-0.184024572,0.8810787,1.0,-0.243789434,0.453952432,-0.00246393681,-1.0,-0.01795113,-0.512469769,-0.9229021,-0.199640036,-0.9441962,-0.03381276,-0.711112857,-0.79706,-0.7722571,-0.07680285,0.62735033,-0.8973584,0.12671566,0.806357,-0.259991437,0.835197,-0.24500072,0.7983949,0.6677338,-0.298523664,-0.0425487757,-0.5663674,-0.7952862,0.6088687,0.7060751,-0.0111218691,-1.0,-0.3664371,-0.06069851,-0.111168146,0.495246649,1.0,0.823194444,-1.0,-0.9747517,0.5494014,0.5348717,-0.333364844,0.638277769,0.08492231,-0.918755054,0.3530184,-0.1494422,0.0668215752,0.473659873,0.0499509573,0.7006608,-0.106216669,-0.512318254,0.490207434,-0.922489762,0.869585752,0.252187848,-0.584933043,1.0,0.9403492,1.0,-0.7209861,-0.763373137,-1.0,0.827613235,0.3258804,-0.0484887362,-0.120083809,-0.241657615,0.2852182,0.7388942,0.117171168,0.91395545,0.9224044,-0.180583477,0.5376831,0.7286086,0.277813643,0.315531224,-0.384385228,0.9261309,0.7381475,-0.1643771,-0.3505205,0.276212931],"RowCount":30,"ColumnCount":10},"ColumnCount":10,"RowCount":30},{"Values":[-0.4138292,-0.635988,0.256704539,0.217565417,-0.921599865,0.0259631872,-0.793721437,-0.5962579,0.9491298,0.944067,0.418555945,-0.178569913,0.7192128,-0.9463875,-0.42617476,-0.6776657,0.012593627,-0.104065061,0.797374249,-0.40111196,-0.0441888571,-0.651457548,-0.935451031,0.451909751,0.5375812,-0.053388238,0.6674397,-0.0304089785,-0.6757901,-0.34824717,0.8301127,-0.337604165,0.7552557,0.13515985,-0.591382,-0.2820109,0.184286952,0.468862981,0.822309,-0.1737901,0.328375071,0.6366563,0.8326092,0.059019208,0.383548468,0.7783115,-0.08989966,0.0343290567,-0.9168072,0.461767882,0.370392531,-0.2820915,-0.380417466,0.53673625,0.3070371,-0.320433974,0.6479814,0.9457848,-0.18678987,-0.974,-0.135253549,0.9596462,0.9847064,-0.0120536089,0.269607276,-0.232409358,-0.551735163,0.4835107,0.9548683,0.0703479052,0.212104917,0.62621,-0.5335388,-0.3241595,-0.6455476,-0.6929822,0.7446985,-0.485040069,0.123770356,0.5273316,-0.348052382,0.779500961,-0.7109256,0.143609166,-0.1961559,-0.122028708,-0.469006658,-0.810621,0.616351843,0.122459531,0.162595391,-0.9674735,-0.338724732,-0.2526623,0.8172741,0.336369246,0.930230856,0.8388493,-0.08588493,-0.4244169],"Storage":{"Data":[-0.4138292,-0.635988,0.256704539,0.217565417,-0.921599865,0.0259631872,-0.793721437,-0.5962579,0.9491298,0.944067,0.418555945,-0.178569913,0.7192128,-0.9463875,-0.42617476,-0.6776657,0.012593627,-0.104065061,0.797374249,-0.40111196,-0.0441888571,-0.651457548,-0.935451031,0.451909751,0.5375812,-0.053388238,0.6674397,-0.0304089785,-0.6757901,-0.34824717,0.8301127,-0.337604165,0.7552557,0.13515985,-0.591382,-0.2820109,0.184286952,0.468862981,0.822309,-0.1737901,0.328375071,0.6366563,0.8326092,0.059019208,0.383548468,0.7783115,-0.08989966,0.0343290567,-0.9168072,0.461767882,0.370392531,-0.2820915,-0.380417466,0.53673625,0.3070371,-0.320433974,0.6479814,0.9457848,-0.18678987,-0.974,-0.135253549,0.9596462,0.9847064,-0.0120536089,0.269607276,-0.232409358,-0.551735163,0.4835107,0.9548683,0.0703479052,0.212104917,0.62621,-0.5335388,-0.3241595,-0.6455476,-0.6929822,0.7446985,-0.485040069,0.123770356,0.5273316,-0.348052382,0.779500961,-0.7109256,0.143609166,-0.1961559,-0.122028708,-0.469006658,-0.810621,0.616351843,0.122459531,0.162595391,-0.9674735,-0.338724732,-0.2526623,0.8172741,0.336369246,0.930230856,0.8388493,-0.08588493,-0.4244169],"RowCount":10,"ColumnCount":10},"ColumnCount":10,"RowCount":10},{"Values":[-0.0289999247,-0.7342408,0.728044748,0.172462583,-0.143666148,-0.419654727,-0.261989236,-0.239224315,0.65028286,-0.27332294,0.117046,-0.0995262861,0.200873733,-0.394358516,-0.6190927,-0.143589854,-0.194202065,-0.3508078,0.163988233,0.314033478,0.771162033,-0.574485064,0.5734918,0.188766122,-0.231639743,0.65205,-0.896579266,0.346091956,0.05163181,-0.330605149,-0.744689465,0.5067184,-0.363979459,-0.434494138,-0.134339213,0.0941509,-0.777416945,0.7102585,0.6802826,0.157056928,0.790044546,0.913490534,-0.9474151,0.135522246,0.5159416,-0.09940851,-0.8439462,0.853086948,-0.611623764,0.0265978575,-0.777592659,0.7738013,-0.485850215,-0.298737168,0.7136054,-0.378347039,-0.104964137,-0.075544,0.8100803,0.653680563,-0.759083033,0.6400292,-0.5285442,0.3267264,0.778988838,-0.560057163,0.558458567,-0.928375,-0.167302728,-0.478039145,0.9613259,-0.319978118,0.9370582,-0.7639775,0.388656825,-0.464371324,-0.0766390562,-0.385439515,0.625673056,0.5956671,-0.09685838,0.956752539,-0.4104303,0.448046178,-0.57147646,0.150216937,-0.0256258249,-0.7706034,-0.4476968,-0.330936551,0.716313839,0.457782477,-0.492324233,0.829369068,0.372580737,0.241310477,-0.112470269,-0.676913738,-0.6263585,-0.8606992],"Storage":{"Data":[-0.0289999247,-0.7342408,0.728044748,0.172462583,-0.143666148,-0.419654727,-0.261989236,-0.239224315,0.65028286,-0.27332294,0.117046,-0.0995262861,0.200873733,-0.394358516,-0.6190927,-0.143589854,-0.194202065,-0.3508078,0.163988233,0.314033478,0.771162033,-0.574485064,0.5734918,0.188766122,-0.231639743,0.65205,-0.896579266,0.346091956,0.05163181,-0.330605149,-0.744689465,0.5067184,-0.363979459,-0.434494138,-0.134339213,0.0941509,-0.777416945,0.7102585,0.6802826,0.157056928,0.790044546,0.913490534,-0.9474151,0.135522246,0.5159416,-0.09940851,-0.8439462,0.853086948,-0.611623764,0.0265978575,-0.777592659,0.7738013,-0.485850215,-0.298737168,0.7136054,-0.378347039,-0.104964137,-0.075544,0.8100803,0.653680563,-0.759083033,0.6400292,-0.5285442,0.3267264,0.778988838,-0.560057163,0.558458567,-0.928375,-0.167302728,-0.478039145,0.9613259,-0.319978118,0.9370582,-0.7639775,0.388656825,-0.464371324,-0.0766390562,-0.385439515,0.625673056,0.5956671,-0.09685838,0.956752539,-0.4104303,0.448046178,-0.57147646,0.150216937,-0.0256258249,-0.7706034,-0.4476968,-0.330936551,0.716313839,0.457782477,-0.492324233,0.829369068,0.372580737,0.241310477,-0.112470269,-0.676913738,-0.6263585,-0.8606992],"RowCount":10,"ColumnCount":10},"ColumnCount":10,"RowCount":10},{"Values":[0.7259908,-0.8198571,-0.465314746,-0.5726824,-0.4351958,-0.3247372,0.659224749,-0.4446057,-0.449847817,0.557707548,0.338843554,-0.640734434,-0.225133538,-0.478567719,-0.6199076,0.387597531,-0.8260071,-0.301593423,-0.955670834,0.3142111,-0.4416486,0.122644067,0.415421218,-0.596139669,-0.3833431,0.679102659,0.6559396,0.5629151,0.167636752,-0.9559336,0.4986231,0.46684882,-0.380079865,0.920496941,0.0397359133,-0.105579972,0.581398964,0.475464553,0.8540189,-0.08206141,0.7401018,0.859360933,-0.676542759,0.44624874,-0.7233882,-0.218344808,0.398881167,0.6824651,-0.695172548,0.36936447,0.338320464,-0.4020046,0.00752007961,-0.246843219,0.267064065,-0.8002622,-0.309283853,0.416042536,0.736359358,-0.8458016,0.608330965,0.307484359,-0.468552,-0.328536868,0.158105731,0.2055577,0.0421391726,0.236062646,0.780355,-0.610693,0.0949417353,0.5837934,-0.416874766,0.585211039,-0.940625668,-0.793236256,-0.761262655,0.6853192,0.8752277,0.532233,-0.54288125,0.0481334925,-0.494767547,0.920851469,-0.479466558,0.112367034,0.484599322,-0.953568935,-0.909034,0.893896341,0.7308481,0.338968962,0.187602878,-0.0134216547,-0.5980787,-0.482190251,-0.451111436,-0.170227647,-0.0764144659,0.172837615],"Storage":{"Data":[0.7259908,-0.8198571,-0.465314746,-0.5726824,-0.4351958,-0.3247372,0.659224749,-0.4446057,-0.449847817,0.557707548,0.338843554,-0.640734434,-0.225133538,-0.478567719,-0.6199076,0.387597531,-0.8260071,-0.301593423,-0.955670834,0.3142111,-0.4416486,0.122644067,0.415421218,-0.596139669,-0.3833431,0.679102659,0.6559396,0.5629151,0.167636752,-0.9559336,0.4986231,0.46684882,-0.380079865,0.920496941,0.0397359133,-0.105579972,0.581398964,0.475464553,0.8540189,-0.08206141,0.7401018,0.859360933,-0.676542759,0.44624874,-0.7233882,-0.218344808,0.398881167,0.6824651,-0.695172548,0.36936447,0.338320464,-0.4020046,0.00752007961,-0.246843219,0.267064065,-0.8002622,-0.309283853,0.416042536,0.736359358,-0.8458016,0.608330965,0.307484359,-0.468552,-0.328536868,0.158105731,0.2055577,0.0421391726,0.236062646,0.780355,-0.610693,0.0949417353,0.5837934,-0.416874766,0.585211039,-0.940625668,-0.793236256,-0.761262655,0.6853192,0.8752277,0.532233,-0.54288125,0.0481334925,-0.494767547,0.920851469,-0.479466558,0.112367034,0.484599322,-0.953568935,-0.909034,0.893896341,0.7308481,0.338968962,0.187602878,-0.0134216547,-0.5980787,-0.482190251,-0.451111436,-0.170227647,-0.0764144659,0.172837615],"RowCount":10,"ColumnCount":10},"ColumnCount":10,"RowCount":10},{"Values":[0.467894047,-0.4388194,0.458376765,-0.21195972,0.0848901,-0.5553043,-0.6067815,-0.932941437,0.6930754,1.0,-1.0,-0.243027329,0.0472122431,0.4948022,-0.439278722,-0.9149978,-0.1531767,0.177605271,-0.353940845,0.683129549],"Storage":{"Data":[0.467894047,-0.4388194,0.458376765,-0.21195972,0.0848901,-0.5553043,-0.6067815,-0.932941437,0.6930754,1.0,-1.0,-0.243027329,0.0472122431,0.4948022,-0.439278722,-0.9149978,-0.1531767,0.177605271,-0.353940845,0.683129549],"RowCount":10,"ColumnCount":2},"ColumnCount":2,"RowCount":10}],"biases":[0.398185462,-0.675588369,-0.857383251,0.156601071],"fitness":1311.32678,"generation":0,"index":8,"parentA":null,"parentB":null,"mutatedWeights":0,"previousFitness":3001.68628}