{"inputLayer":{"Values":[0.0,0.0,0.0,0.0,0.0,0.0,0.0,0.7590987,0.0,0.0,0.0,0.0,0.0,0.0,0.0,0.0,0.0,0.0,0.0,0.0,0.0,0.0,0.0,0.0,0.0,0.670401454,0.251362562,0.0178848021,0.0180434939,0.018294936],"Storage":{"Data":[0.0,0.0,0.0,0.0,0.0,0.0,0.0,0.7590987,0.0,0.0,0.0,0.0,0.0,0.0,0.0,0.0,0.0,0.0,0.0,0.0,0.0,0.0,0.0,0.0,0.0,0.670401454,0.251362562,0.0178848021,0.0180434939,0.018294936],"RowCount":1,"ColumnCount":30},"ColumnCount":30,"RowCount":1},"hiddenLayers":[{"Values":[0.8676649,0.7902337,-0.425687671,0.8724045,0.621643543,0.1738694,0.574317932,0.243982136,0.4692296,0.6893977],"Storage":{"Data":[0.8676649,0.7902337,-0.425687671,0.8724045,0.621643543,0.1738694,0.574317932,0.243982136,0.4692296,0.6893977],"RowCount":1,"ColumnCount":10},"ColumnCount":10,"RowCount":1},{"Values":[-0.7161308,0.993946552,-0.269186974,0.5879989,0.252525061,-0.7167967,-0.8454592,0.1640785,0.493489176,-0.6558143],"Storage":{"Data":[-0.7161308,0.993946552,-0.269186974,0.5879989,0.252525061,-0.7167967,-0.8454592,0.1640785,0.493489176,-0.6558143],"RowCount":1,"ColumnCount":10},"ColumnCount":10,"RowCount":1},{"Values":[-0.8726162,-0.8894622,-0.103974462,-0.952658653,-0.88648653,-0.831502557,0.6530904,-0.5863842,0.5296821,0.9822175],"Storage":{"Data":[-0.8726162,-0.8894622,-0.103974462,-0.952658653,-0.88648653,-0.831502557,0.6530904,-0.5863842,0.5296821,0.9822175],"RowCount":1,"ColumnCount":10},"ColumnCount":10,"RowCount":1}],"outputLayer":{"Values":[-0.7096186,0.9639468],"Storage":{"Data":[-0.7096186,0.9639468],"RowCount":1,"ColumnCount":2},"ColumnCount":2,"RowCount":1},"weights":[{"Values":[-0.475805163,0.296763152,0.04552877,0.8673053,0.721204042,-0.2507757,0.7773857,-0.435125,-0.6615758,0.239071012,-0.1290201,0.04185593,0.7524035,0.943984747,0.532189369,0.5549376,-0.841594,-0.161337972,-0.126244187,0.188861728,0.445186347,0.0111712217,0.00741922855,-0.7408099,-0.005835891,0.950775862,0.8956847,0.511188269,-0.487521768,0.485045165,-0.902395248,0.703040361,0.79097414,0.332324,0.870591164,-0.971243858,0.7723162,-0.798686743,0.4531226,0.09267318,-0.824126,0.6535857,0.250721425,0.928015,0.7165823,-0.0530904531,-0.23810041,-0.16351068,-0.8878555,-0.456167817,0.508387566,0.5711446,-0.7576034,0.512436867,0.444815367,0.956841469,0.8769705,0.9677179,0.80792594,0.134011149,0.11628592,0.104805827,-0.964326859,0.386588544,-0.54712677,0.8834245,0.8694241,-0.952207565,-0.787570953,-0.315041184,-0.259581685,-0.8846853,-0.8250139,0.0787829161,0.5140703,0.6646681,-0.350630879,0.855282068,0.155887961,0.2544417,0.745105,0.4950125,0.420559376,0.103868365,-0.4189564,-0.893497467,0.3851199,0.2953746,-0.1675061,-0.762776136,0.686665535,0.6495733,0.766417,0.282226056,-0.97225523,-0.8053446,-0.8210335,0.567180634,-0.1468147,0.9246156,-0.5396764,-0.210024,0.1113497,0.108864665,0.375669926,0.8516996,-0.371773839,-0.0944517851,-0.6733775,-0.190347314,-0.0233038664,0.7388525,-0.134415984,0.956616163,0.366437644,0.154301286,0.0269325972,0.00353753567,0.855882645,0.256762,0.3035502,0.4377608,-0.507953644,-0.1638478,0.5464349,-0.91594243,-0.5446737,0.1122483,0.3689427,0.02087462,-0.6781862,0.128433108,0.9189346,-0.7923832,-0.811980963,-0.07768357,-0.202842355,0.455041856,-0.890390158,0.683809757,-0.279177785,0.3471894,-0.611165047,0.439300269,0.342813939,-0.107816815,-0.270465016,0.9088831,-0.416569829,-0.442469478,-0.6257384,0.321001977,-0.3757776,0.999192,-0.13971746,-0.15261662,-0.4098071,0.1613177,0.8037679,-0.675056458,-0.5784645,0.8512111,-0.501981735,0.18310225,-0.1860789,-0.232216954,0.849355,-0.8416233,0.504986763,0.07717526,0.676882744,-0.591136932,0.727287054,0.9046638,-0.121225,-0.886749268,-0.4506966,-0.470569,0.231274486,-0.922992945,0.523798466,-0.7693882,0.9715009,-0.0385164022,-0.0280064344,0.14338553,-0.983922243,-0.2667812,0.1444701,0.1628586,0.869826555,-0.452305675,0.3160362,0.390650243,-0.241796136,0.771000147,-0.9749925,0.8214805,-0.0277987719,-0.224645019,-0.3197893,-0.476600051,-0.625341654,0.9535105,-0.119606137,0.0460451841,0.172819734,0.08914101,-0.1845516,0.0977791548,-0.84324,-0.406696439,0.226292729,-0.316053271,-0.839096069,0.375213116,0.2775633,-0.0585194826,-0.3368727,-0.09444749,0.0304130316,-0.774029255,0.851976633,-0.600438833,0.489388436,0.762609,0.2876992,-0.6028063,-0.6253209,0.0260609388,0.4010665,-0.830113649,0.5430789,0.3517618,0.8635051,-0.963880062,0.5960634,0.7677746,-0.0935653448,-0.237876058,-0.5053508,-0.130056977,-0.829794168,-0.5800979,0.9181366,-0.671944857,0.0981045961,-0.0652915239,-0.448045135,0.598027945,-0.665745,0.690080643,-0.800095558,0.387408465,-0.584969044,0.845484,0.186190009,0.452460259,0.7374749,-0.597044468,-0.950785637,-0.5821028,0.497541636,0.7931361,-0.87149,-0.100674748,-0.7166238,0.401214331,0.6569414,0.281339854,-0.4315039,-0.969063759,0.839638,-0.979017,0.444189042,-0.264207244,-0.878247738,-0.353031278,0.2376765,0.21521914,-0.464778781,-0.39017427,0.2928805,-0.9671848,0.746217251,0.7384839,-0.435434222,-0.241665483,0.289122075,0.8273971,0.099434495,0.8719013,-0.772262335,-0.555404663,-0.741369247,0.394902438,0.184518218,0.5371101,0.5540695,0.107772708],"Storage":{"Data":[-0.475805163,0.296763152,0.04552877,0.8673053,0.721204042,-0.2507757,0.7773857,-0.435125,-0.6615758,0.239071012,-0.1290201,0.04185593,0.7524035,0.943984747,0.532189369,0.5549376,-0.841594,-0.161337972,-0.126244187,0.188861728,0.445186347,0.0111712217,0.00741922855,-0.7408099,-0.005835891,0.950775862,0.8956847,0.511188269,-0.487521768,0.485045165,-0.902395248,0.703040361,0.79097414,0.332324,0.870591164,-0.971243858,0.7723162,-0.798686743,0.4531226,0.09267318,-0.824126,0.6535857,0.250721425,0.928015,0.7165823,-0.0530904531,-0.23810041,-0.16351068,-0.8878555,-0.456167817,0.508387566,0.5711446,-0.7576034,0.512436867,0.444815367,0.956841469,0.8769705,0.9677179,0.80792594,0.134011149,0.11628592,0.104805827,-0.964326859,0.386588544,-0.54712677,0.8834245,0.8694241,-0.952207565,-0.787570953,-0.315041184,-0.259581685,-0.8846853,-0.8250139,0.0787829161,0.5140703,0.6646681,-0.350630879,0.855282068,0.155887961,0.2544417,0.745105,0.4950125,0.420559376,0.103868365,-0.4189564,-0.893497467,0.3851199,0.2953746,-0.1675061,-0.762776136,0.686665535,0.6495733,0.766417,0.282226056,-0.97225523,-0.8053446,-0.8210335,0.567180634,-0.1468147,0.9246156,-0.5396764,-0.210024,0.1113497,0.108864665,0.375669926,0.8516996,-0.371773839,-0.0944517851,-0.6733775,-0.190347314,-0.0233038664,0.7388525,-0.134415984,0.956616163,0.366437644,0.154301286,0.0269325972,0.00353753567,0.855882645,0.256762,0.3035502,0.4377608,-0.507953644,-0.1638478,0.5464349,-0.91594243,-0.5446737,0.1122483,0.3689427,0.02087462,-0.6781862,0.128433108,0.9189346,-0.7923832,-0.811980963,-0.07768357,-0.202842355,0.455041856,-0.890390158,0.683809757,-0.279177785,0.3471894,-0.611165047,0.439300269,0.342813939,-0.107816815,-0.270465016,0.9088831,-0.416569829,-0.442469478,-0.6257384,0.321001977,-0.3757776,0.999192,-0.13971746,-0.15261662,-0.4098071,0.1613177,0.8037679,-0.675056458,-0.5784645,0.8512111,-0.501981735,0.18310225,-0.1860789,-0.232216954,0.849355,-0.8416233,0.504986763,0.07717526,0.676882744,-0.591136932,0.727287054,0.9046638,-0.121225,-0.886749268,-0.4506966,-0.470569,0.231274486,-0.922992945,0.523798466,-0.7693882,0.9715009,-0.0385164022,-0.0280064344,0.14338553,-0.983922243,-0.2667812,0.1444701,0.1628586,0.869826555,-0.452305675,0.3160362,0.390650243,-0.241796136,0.771000147,-0.9749925,0.8214805,-0.0277987719,-0.224645019,-0.3197893,-0.476600051,-0.625341654,0.9535105,-0.119606137,0.0460451841,0.172819734,0.08914101,-0.1845516,0.0977791548,-0.84324,-0.406696439,0.226292729,-0.316053271,-0.839096069,0.375213116,0.2775633,-0.0585194826,-0.3368727,-0.09444749,0.0304130316,-0.774029255,0.851976633,-0.600438833,0.489388436,0.762609,0.2876992,-0.6028063,-0.6253209,0.0260609388,0.4010665,-0.830113649,0.5430789,0.3517618,0.8635051,-0.963880062,0.5960634,0.7677746,-0.0935653448,-0.237876058,-0.5053508,-0.130056977,-0.829794168,-0.5800979,0.9181366,-0.671944857,0.0981045961,-0.0652915239,-0.448045135,0.598027945,-0.665745,0.690080643,-0.800095558,0.387408465,-0.584969044,0.845484,0.186190009,0.452460259,0.7374749,-0.597044468,-0.950785637,-0.5821028,0.497541636,0.7931361,-0.87149,-0.100674748,-0.7166238,0.401214331,0.6569414,0.281339854,-0.4315039,-0.969063759,0.839638,-0.979017,0.444189042,-0.264207244,-0.878247738,-0.353031278,0.2376765,0.21521914,-0.464778781,-0.39017427,0.2928805,-0.9671848,0.746217251,0.7384839,-0.435434222,-0.241665483,0.289122075,0.8273971,0.099434495,0.8719013,-0.772262335,-0.555404663,-0.741369247,0.394902438,0.184518218,0.5371101,0.5540695,0.107772708],"RowCount":30,"ColumnCount":10},"ColumnCount":10,"RowCount":30},{"Values":[0.0155471563,-0.5520489,0.9295292,-0.59839654,0.0492204428,0.6313739,-0.0586258173,0.9820888,-0.2153436,-0.6249075,0.7680998,0.5764568,0.153667331,0.33371374,0.606009245,0.428077668,-0.0624588728,0.9749205,0.8441615,-0.180897117,-0.0129443407,0.06529319,0.323902816,-0.340716243,0.475470036,-0.8968744,-0.4058138,-0.8685322,0.172547936,-0.410833478,-0.5964067,0.7611692,0.8877876,-0.101727128,0.0454779863,-0.5946567,0.383511037,-0.461119533,-0.121622205,0.6604521,-0.979037762,0.05525577,-0.8115406,-0.0835396051,-0.03358829,0.4975464,-0.614062548,0.6680012,-0.6106169,0.8348484,-0.44484365,-0.259064078,0.161204457,-0.586726665,0.287968367,-0.6534457,-0.133614659,-0.387519717,0.37963888,-0.6215105,-0.2019068,-0.500604153,0.265261382,0.262085885,-0.625968933,-0.0218538046,-0.1284064,0.481327742,-0.891685247,-0.9336922,-0.9416349,0.295316428,0.912083864,-0.05378568,-0.0160673857,0.215556741,0.8555498,-0.322496533,0.974632,-0.492383838,0.4185457,-0.030375123,-0.633118868,-0.5942383,-0.573323965,-0.702512,-0.196650863,0.4575679,0.6783645,-0.0209134817,-0.4040016,0.585785151,0.376000375,-0.734122038,0.4770169,-0.4249035,-0.0238832235,-0.970973,-0.913546562,-0.387355924],"Storage":{"Data":[0.0155471563,-0.5520489,0.9295292,-0.59839654,0.0492204428,0.6313739,-0.0586258173,0.9820888,-0.2153436,-0.6249075,0.7680998,0.5764568,0.153667331,0.33371374,0.606009245,0.428077668,-0.0624588728,0.9749205,0.8441615,-0.180897117,-0.0129443407,0.06529319,0.323902816,-0.340716243,0.475470036,-0.8968744,-0.4058138,-0.8685322,0.172547936,-0.410833478,-0.5964067,0.7611692,0.8877876,-0.101727128,0.0454779863,-0.5946567,0.383511037,-0.461119533,-0.121622205,0.6604521,-0.979037762,0.05525577,-0.8115406,-0.0835396051,-0.03358829,0.4975464,-0.614062548,0.6680012,-0.6106169,0.8348484,-0.44484365,-0.259064078,0.161204457,-0.586726665,0.287968367,-0.6534457,-0.133614659,-0.387519717,0.37963888,-0.6215105,-0.2019068,-0.500604153,0.265261382,0.262085885,-0.625968933,-0.0218538046,-0.1284064,0.481327742,-0.891685247,-0.9336922,-0.9416349,0.295316428,0.912083864,-0.05378568,-0.0160673857,0.215556741,0.8555498,-0.322496533,0.974632,-0.492383838,0.4185457,-0.030375123,-0.633118868,-0.5942383,-0.573323965,-0.702512,-0.196650863,0.4575679,0.6783645,-0.0209134817,-0.4040016,0.585785151,0.376000375,-0.734122038,0.4770169,-0.4249035,-0.0238832235,-0.970973,-0.913546562,-0.387355924],"RowCount":10,"ColumnCount":10},"ColumnCount":10,"RowCount":10},{"Values":[0.601164341,-0.7237325,0.895130634,-0.7810824,-0.336831927,0.8293359,-0.5440905,0.9979782,0.936102867,-0.478607774,0.445855826,-0.247772336,-0.743311167,0.00396955,-0.87871027,0.5407121,0.0391165,0.8093231,-0.12544167,0.412669629,-0.116140008,-0.08953488,0.3314385,-0.5931716,-0.8256402,0.4789271,-0.49389255,0.8583422,0.4328234,-0.508034945,-0.3778621,-0.27275598,0.7171123,-0.274160981,0.67258215,0.799355745,0.268853635,-0.8351259,0.022575736,0.8154733,-0.456443667,-0.5045681,0.7735026,-0.499625564,-0.5299859,0.460436076,0.0315252542,-0.794719,-0.109866023,-0.24460113,-0.08620894,-0.478279233,0.7294378,-0.7613065,-0.915186167,0.6168084,-0.87051034,0.6458008,-0.196550488,-0.01046145,-0.116058946,0.7929723,-0.122251868,0.5988438,-0.31644094,0.114475608,0.8850665,-0.5514827,0.6578536,-0.6318269,0.167178988,-0.353018165,0.0430625677,0.009400964,0.784399748,-0.7346263,0.599219561,0.613245,0.221483111,0.6244483,0.8834059,0.6363969,0.213090777,-0.52331233,0.408787221,-0.419561267,-0.6932676,0.375409335,-0.408193,-0.48567903,-0.915325642,0.922929764,-0.127550721,0.835161,0.968914032,-0.8331826,-0.6037116,0.3279688,-0.9796989,0.6863377],"Storage":{"Data":[0.601164341,-0.7237325,0.895130634,-0.7810824,-0.336831927,0.8293359,-0.5440905,0.9979782,0.936102867,-0.478607774,0.445855826,-0.247772336,-0.743311167,0.00396955,-0.87871027,0.5407121,0.0391165,0.8093231,-0.12544167,0.412669629,-0.116140008,-0.08953488,0.3314385,-0.5931716,-0.8256402,0.4789271,-0.49389255,0.8583422,0.4328234,-0.508034945,-0.3778621,-0.27275598,0.7171123,-0.274160981,0.67258215,0.799355745,0.268853635,-0.8351259,0.022575736,0.8154733,-0.456443667,-0.5045681,0.7735026,-0.499625564,-0.5299859,0.460436076,0.0315252542,-0.794719,-0.109866023,-0.24460113,-0.08620894,-0.478279233,0.7294378,-0.7613065,-0.915186167,0.6168084,-0.87051034,0.6458008,-0.196550488,-0.01046145,-0.116058946,0.7929723,-0.122251868,0.5988438,-0.31644094,0.114475608,0.8850665,-0.5514827,0.6578536,-0.6318269,0.167178988,-0.353018165,0.0430625677,0.009400964,0.784399748,-0.7346263,0.599219561,0.613245,0.221483111,0.6244483,0.8834059,0.6363969,0.213090777,-0.52331233,0.408787221,-0.419561267,-0.6932676,0.375409335,-0.408193,-0.48567903,-0.915325642,0.922929764,-0.127550721,0.835161,0.968914032,-0.8331826,-0.6037116,0.3279688,-0.9796989,0.6863377],"RowCount":10,"ColumnCount":10},"ColumnCount":10,"RowCount":10},{"Values":[-0.0194605589,0.2967963,-0.6504433,-0.245055556,0.832138538,-0.491765141,0.45676133,-0.672194958,-0.464782834,-0.214577317,-0.253131032,-0.147552371,-0.8459408,0.508994341,0.5739758,-0.01578486,-0.354813933,0.918471336,0.909661531,-0.0776521,-0.6283586,-0.157034278,-0.2703091,0.675024033,-0.201217771,0.3982105,-0.4333321,-0.776596069,-0.165686011,0.28772518,0.4703953,0.543841839,-0.135529637,-0.5037494,0.5090647,-0.640645,-0.46977818,0.801669359,-0.5103266,0.8178923,0.09706533,-0.07485068,0.7404516,0.214318633,-0.4571494,0.9249985,0.809766054,-0.0637594461,0.113455892,-0.282691836,0.6674371,-0.1799022,0.8682203,-0.54298687,0.635355949,-0.124431491,-0.333904862,0.8874986,0.6420138,0.485642165,0.271761626,-0.8964846,-0.810590744,0.200629354,-0.30355227,0.7186556,-0.5051284,-0.8838229,-0.6509721,-0.00247514248,-0.120507836,-0.746665239,-0.5214162,-0.5606303,0.6932194,0.438460082,0.8927381,-0.158750653,0.239638686,-0.782317638,0.0391327143,-0.231293082,-0.4169942,0.139426351,-0.707630157,0.7607713,0.737946033,-0.279161334,0.307429761,0.5546677,-0.528499842,0.5981524,-0.3134328,-0.435781121,-0.9150202,0.05254209,0.457874268,-0.322742343,0.382150382,0.890980244],"Storage":{"Data":[-0.0194605589,0.2967963,-0.6504433,-0.245055556,0.832138538,-0.491765141,0.45676133,-0.672194958,-0.464782834,-0.214577317,-0.253131032,-0.147552371,-0.8459408,0.508994341,0.5739758,-0.01578486,-0.354813933,0.918471336,0.909661531,-0.0776521,-0.6283586,-0.157034278,-0.2703091,0.675024033,-0.201217771,0.3982105,-0.4333321,-0.776596069,-0.165686011,0.28772518,0.4703953,0.543841839,-0.135529637,-0.5037494,0.5090647,-0.640645,-0.46977818,0.801669359,-0.5103266,0.8178923,0.09706533,-0.07485068,0.7404516,0.214318633,-0.4571494,0.9249985,0.809766054,-0.0637594461,0.113455892,-0.282691836,0.6674371,-0.1799022,0.8682203,-0.54298687,0.635355949,-0.124431491,-0.333904862,0.8874986,0.6420138,0.485642165,0.271761626,-0.8964846,-0.810590744,0.200629354,-0.30355227,0.7186556,-0.5051284,-0.8838229,-0.6509721,-0.00247514248,-0.120507836,-0.746665239,-0.5214162,-0.5606303,0.6932194,0.438460082,0.8927381,-0.158750653,0.239638686,-0.782317638,0.0391327143,-0.231293082,-0.4169942,0.139426351,-0.707630157,0.7607713,0.737946033,-0.279161334,0.307429761,0.5546677,-0.528499842,0.5981524,-0.3134328,-0.435781121,-0.9150202,0.05254209,0.457874268,-0.322742343,0.382150382,0.890980244],"RowCount":10,"ColumnCount":10},"ColumnCount":10,"RowCount":10},{"Values":[0.911937,0.653911352,-0.246630788,-0.364170432,0.7736838,-0.235595584,-0.41148293,-0.927651167,-0.7404623,0.0225120783,-0.721593857,0.626364,-0.254220128,-0.8555217,-0.991445541,-0.427494884,-0.687392235,-0.103693604,-0.8559065,-0.0114761591],"Storage":{"Data":[0.911937,0.653911352,-0.246630788,-0.364170432,0.7736838,-0.235595584,-0.41148293,-0.927651167,-0.7404623,0.0225120783,-0.721593857,0.626364,-0.254220128,-0.8555217,-0.991445541,-0.427494884,-0.687392235,-0.103693604,-0.8559065,-0.0114761591],"RowCount":10,"ColumnCount":2},"ColumnCount":2,"RowCount":10}],"biases":[0.7820933,0.6263728,-0.21391046,0.7032471],"fitness":305.5109,"generation":0,"index":0,"parentA":null,"parentB":null,"mutatedWeights":0,"previousFitness":1642.26392}