{"inputLayer":{"Values":[0.6835168,0.679536343,0.6921166,0.72828114,0.744805038,0.7614472,0.0,0.0,0.5957863,0.0,0.0,0.0,0.0,0.0,0.0,0.0,0.0,0.0,0.4473275,0.0,0.0,0.0,0.0,0.0,0.0,0.03412648,0.0237816926,0.018547019,0.018999787,0.0195729323],"Storage":{"Data":[0.6835168,0.679536343,0.6921166,0.72828114,0.744805038,0.7614472,0.0,0.0,0.5957863,0.0,0.0,0.0,0.0,0.0,0.0,0.0,0.0,0.0,0.4473275,0.0,0.0,0.0,0.0,0.0,0.0,0.03412648,0.0237816926,0.018547019,0.018999787,0.0195729323],"RowCount":1,"ColumnCount":30},"ColumnCount":30,"RowCount":1},"hiddenLayers":[{"Values":[0.967920363,0.786123335,0.9810558,0.9871981,0.9779007,0.930996537,0.98293364,0.985031545,0.82804817,0.811783],"Storage":{"Data":[0.967920363,0.786123335,0.9810558,0.9871981,0.9779007,0.930996537,0.98293364,0.985031545,0.82804817,0.811783],"RowCount":1,"ColumnCount":10},"ColumnCount":10,"RowCount":1},{"Values":[-0.9923744,-0.986790359,0.476102024,-0.946079,-0.991817653,0.346362561,0.235940024,0.185200527,-0.9946821,0.802619636],"Storage":{"Data":[-0.9923744,-0.986790359,0.476102024,-0.946079,-0.991817653,0.346362561,0.235940024,0.185200527,-0.9946821,0.802619636],"RowCount":1,"ColumnCount":10},"ColumnCount":10,"RowCount":1},{"Values":[-0.241350219,-0.506786764,0.963980854,-0.358645171,0.1004173,-0.9885305,-0.99677825,-0.90003,-0.9534349,-0.972709835],"Storage":{"Data":[-0.241350219,-0.506786764,0.963980854,-0.358645171,0.1004173,-0.9885305,-0.99677825,-0.90003,-0.9534349,-0.972709835],"RowCount":1,"ColumnCount":10},"ColumnCount":10,"RowCount":1}],"outputLayer":{"Values":[-0.8847441,0.192967013],"Storage":{"Data":[-0.8847441,0.192967013],"RowCount":1,"ColumnCount":2},"ColumnCount":2,"RowCount":1},"weights":[{"Values":[0.232175469,0.312459916,0.9776838,0.125697732,0.101279378,0.9597101,-0.5174215,0.10292685,-0.947692156,0.126585841,-0.486384273,-0.6920607,0.8561063,-0.5756123,0.603942633,0.7652278,-0.493149638,0.9416168,-0.439005017,-0.349641442,-0.9800029,0.4701614,-0.32075417,0.85192275,-0.6182389,0.121044755,0.362897366,0.911405563,-0.7422807,0.547729254,0.9477048,-0.249513984,0.177256227,0.0338481665,-0.342676282,0.951784849,-0.691676855,0.6981034,-0.738549,0.9023318,-0.8213494,0.1913234,-0.894207954,-0.441900373,0.046872735,0.457227677,0.152233958,0.9577358,-0.9558339,-0.2314974,-0.643267632,-0.9975171,0.818040848,0.7489493,-0.747444868,0.288332671,-0.969578,-0.0245164633,-0.9969089,0.961111069,-0.583107,0.714190245,0.5094309,0.9718728,0.579838753,-0.637596846,-0.3672725,-0.6691015,0.440366,-0.97841,0.3402414,-0.765789032,0.8036866,-0.0969814062,-0.6853032,0.241866231,0.3350558,0.305517882,0.3449032,-0.8392739,0.249254823,-0.6852925,0.5954294,0.8675115,-0.509184837,-0.222766757,-0.7340486,-0.377930284,-0.5326023,0.4823291,-0.0453740358,0.989779,0.7740829,0.483323544,0.347303838,0.2194103,-0.145486712,-0.09486711,-0.212330937,0.795740366,-0.02657044,-0.612092733,0.48276493,0.5714576,-0.127707124,0.227305532,0.8574474,-0.6168959,-0.2344948,0.387288064,0.542758465,-0.77429533,-0.417947173,0.394991845,-0.05210793,-0.5518286,-0.9097743,0.8129182,-0.655410767,-0.5577462,-0.101769805,0.3158917,-0.390531659,0.6888993,0.174168468,0.833591461,0.886791945,-0.221836448,0.9279883,0.9635496,-0.0878332853,0.0459345579,-0.928390265,-0.832064867,-0.463009715,0.838222265,0.552265167,0.823826551,-0.693096161,-0.285098672,0.6689577,0.62363553,0.06646979,-0.333052516,0.453570336,0.4711797,0.144878745,0.103823543,-0.5426345,0.236584783,0.375653476,-0.7022331,0.6876123,0.4174094,0.573422432,-0.307688117,-0.3258952,0.3928766,0.5769651,-0.759137869,0.9836514,-0.214084029,-0.429401517,0.4944758,0.9803598,-0.09219086,-0.0961147547,-0.6086707,-0.6638813,-0.7094953,-0.803331137,-0.9001405,-0.33418262,0.586540461,0.672133446,0.5765679,0.559531,-0.983610153,0.02799642,0.202569842,0.9652002,0.775659561,0.5584445,0.0348233,-0.3958665,0.07933438,-0.901113749,0.8427305,0.5286217,-0.3085028,0.263496846,-0.6362767,-0.309264541,0.5068066,-0.9066994,-0.0383306742,0.446931332,0.6548066,-0.298264623,0.158724666,0.2333504,0.627535343,-0.16884172,-0.09800708,0.157199025,0.0394881964,0.4959006,-0.220148683,-0.278740048,-0.99440074,0.3758454,0.8761654,-0.443409324,0.442106217,-0.689558268,0.9302094,0.173135877,-0.111527085,0.8060529,0.72646594,0.5017786,-0.316095,0.3483877,-0.984112,-0.9740424,-0.0101438761,-0.713164568,-0.5486584,0.141149163,-0.08605397,-0.3796116,0.3636591,-0.514268637,0.785882235,0.7077799,0.217313647,0.0132249594,-0.477397084,0.2159425,-0.626034737,0.749405861,0.9276433,0.548588753,-0.875987768,-0.2566079,-0.3902601,0.823201656,0.1046406,-0.837044954,0.68994,0.183775067,0.512109041,0.4443538,-0.2678231,-0.667961359,-0.6588006,-0.728921652,-0.9148619,0.9627869,0.961272955,0.31274268,-0.9894333,0.410814017,-0.09992826,0.0226014853,-0.495052218,-0.0253146887,0.5613191,0.295673817,0.3991227,-0.3863126,-0.901843548,0.8010025,0.9699855,0.7943592,-0.4106022,-0.151924014,-0.211109519,-0.915779352,0.934393167,-0.7289376,0.754379749,0.8282409,0.5928304,0.4109237,0.5299821,0.8591454,0.0142558813,0.301635474,-0.208913684,-0.6421273,0.7988441,-0.412454963,-0.379627347,-0.6174457,0.5644059,0.28057,-0.549932241,0.03333652,0.8225472],"Storage":{"Data":[0.232175469,0.312459916,0.9776838,0.125697732,0.101279378,0.9597101,-0.5174215,0.10292685,-0.947692156,0.126585841,-0.486384273,-0.6920607,0.8561063,-0.5756123,0.603942633,0.7652278,-0.493149638,0.9416168,-0.439005017,-0.349641442,-0.9800029,0.4701614,-0.32075417,0.85192275,-0.6182389,0.121044755,0.362897366,0.911405563,-0.7422807,0.547729254,0.9477048,-0.249513984,0.177256227,0.0338481665,-0.342676282,0.951784849,-0.691676855,0.6981034,-0.738549,0.9023318,-0.8213494,0.1913234,-0.894207954,-0.441900373,0.046872735,0.457227677,0.152233958,0.9577358,-0.9558339,-0.2314974,-0.643267632,-0.9975171,0.818040848,0.7489493,-0.747444868,0.288332671,-0.969578,-0.0245164633,-0.9969089,0.961111069,-0.583107,0.714190245,0.5094309,0.9718728,0.579838753,-0.637596846,-0.3672725,-0.6691015,0.440366,-0.97841,0.3402414,-0.765789032,0.8036866,-0.0969814062,-0.6853032,0.241866231,0.3350558,0.305517882,0.3449032,-0.8392739,0.249254823,-0.6852925,0.5954294,0.8675115,-0.509184837,-0.222766757,-0.7340486,-0.377930284,-0.5326023,0.4823291,-0.0453740358,0.989779,0.7740829,0.483323544,0.347303838,0.2194103,-0.145486712,-0.09486711,-0.212330937,0.795740366,-0.02657044,-0.612092733,0.48276493,0.5714576,-0.127707124,0.227305532,0.8574474,-0.6168959,-0.2344948,0.387288064,0.542758465,-0.77429533,-0.417947173,0.394991845,-0.05210793,-0.5518286,-0.9097743,0.8129182,-0.655410767,-0.5577462,-0.101769805,0.3158917,-0.390531659,0.6888993,0.174168468,0.833591461,0.886791945,-0.221836448,0.9279883,0.9635496,-0.0878332853,0.0459345579,-0.928390265,-0.832064867,-0.463009715,0.838222265,0.552265167,0.823826551,-0.693096161,-0.285098672,0.6689577,0.62363553,0.06646979,-0.333052516,0.453570336,0.4711797,0.144878745,0.103823543,-0.5426345,0.236584783,0.375653476,-0.7022331,0.6876123,0.4174094,0.573422432,-0.307688117,-0.3258952,0.3928766,0.5769651,-0.759137869,0.9836514,-0.214084029,-0.429401517,0.4944758,0.9803598,-0.09219086,-0.0961147547,-0.6086707,-0.6638813,-0.7094953,-0.803331137,-0.9001405,-0.33418262,0.586540461,0.672133446,0.5765679,0.559531,-0.983610153,0.02799642,0.202569842,0.9652002,0.775659561,0.5584445,0.0348233,-0.3958665,0.07933438,-0.901113749,0.8427305,0.5286217,-0.3085028,0.263496846,-0.6362767,-0.309264541,0.5068066,-0.9066994,-0.0383306742,0.446931332,0.6548066,-0.298264623,0.158724666,0.2333504,0.627535343,-0.16884172,-0.09800708,0.157199025,0.0394881964,0.4959006,-0.220148683,-0.278740048,-0.99440074,0.3758454,0.8761654,-0.443409324,0.442106217,-0.689558268,0.9302094,0.173135877,-0.111527085,0.8060529,0.72646594,0.5017786,-0.316095,0.3483877,-0.984112,-0.9740424,-0.0101438761,-0.713164568,-0.5486584,0.141149163,-0.08605397,-0.3796116,0.3636591,-0.514268637,0.785882235,0.7077799,0.217313647,0.0132249594,-0.477397084,0.2159425,-0.626034737,0.749405861,0.9276433,0.548588753,-0.875987768,-0.2566079,-0.3902601,0.823201656,0.1046406,-0.837044954,0.68994,0.183775067,0.512109041,0.4443538,-0.2678231,-0.667961359,-0.6588006,-0.728921652,-0.9148619,0.9627869,0.961272955,0.31274268,-0.9894333,0.410814017,-0.09992826,0.0226014853,-0.495052218,-0.0253146887,0.5613191,0.295673817,0.3991227,-0.3863126,-0.901843548,0.8010025,0.9699855,0.7943592,-0.4106022,-0.151924014,-0.211109519,-0.915779352,0.934393167,-0.7289376,0.754379749,0.8282409,0.5928304,0.4109237,0.5299821,0.8591454,0.0142558813,0.301635474,-0.208913684,-0.6421273,0.7988441,-0.412454963,-0.379627347,-0.6174457,0.5644059,0.28057,-0.549932241,0.03333652,0.8225472],"RowCount":30,"ColumnCount":10},"ColumnCount":10,"RowCount":30},{"Values":[0.934256554,0.8219669,-0.404108167,-0.8697758,-0.3657242,-0.787641048,-0.523995161,-0.576653242,-0.05388224,-0.191476941,-0.5136566,-0.116791368,-0.5716677,-0.250023246,-0.364941716,-0.03107655,0.632401466,-0.169647574,-0.665148,0.09381306,0.115741372,-0.6364753,0.125418067,0.7432978,0.5839467,0.192093253,-0.469511867,0.618975639,0.304542273,-0.48874414,0.7566514,0.7098582,-0.9262409,-0.385336757,0.2027651,0.7759664,-0.394482255,-0.6778774,-0.416712165,-0.7519553,-0.6904466,0.3522024,-0.186167836,-0.157994628,-0.9196696,-0.0965551138,0.140124679,-0.537029266,-0.171867013,0.2580988,0.693820238,0.8114562,-0.8075621,-0.426885,0.6374099,-0.5885985,0.3865628,0.593673468,-0.285224557,0.204110265,-0.7282829,0.271113127,-0.500692844,0.2780485,-0.225384116,0.09399831,0.137507081,0.908610344,0.7206576,0.195924878,-0.4722575,0.972246647,0.9425247,-0.51242733,-0.0197297335,0.7341027,-0.681705236,0.492192954,-0.4781474,0.101590753,-0.07533133,-0.9466877,0.1528598,0.2212547,-0.5982034,0.653224,-0.348493934,-0.7549298,-0.5566516,-0.3533064,-0.993759632,0.9084046,0.0422033072,-0.210922122,-0.425429225,0.649462461,0.518101,0.823253155,0.854939,0.009680629],"Storage":{"Data":[0.934256554,0.8219669,-0.404108167,-0.8697758,-0.3657242,-0.787641048,-0.523995161,-0.576653242,-0.05388224,-0.191476941,-0.5136566,-0.116791368,-0.5716677,-0.250023246,-0.364941716,-0.03107655,0.632401466,-0.169647574,-0.665148,0.09381306,0.115741372,-0.6364753,0.125418067,0.7432978,0.5839467,0.192093253,-0.469511867,0.618975639,0.304542273,-0.48874414,0.7566514,0.7098582,-0.9262409,-0.385336757,0.2027651,0.7759664,-0.394482255,-0.6778774,-0.416712165,-0.7519553,-0.6904466,0.3522024,-0.186167836,-0.157994628,-0.9196696,-0.0965551138,0.140124679,-0.537029266,-0.171867013,0.2580988,0.693820238,0.8114562,-0.8075621,-0.426885,0.6374099,-0.5885985,0.3865628,0.593673468,-0.285224557,0.204110265,-0.7282829,0.271113127,-0.500692844,0.2780485,-0.225384116,0.09399831,0.137507081,0.908610344,0.7206576,0.195924878,-0.4722575,0.972246647,0.9425247,-0.51242733,-0.0197297335,0.7341027,-0.681705236,0.492192954,-0.4781474,0.101590753,-0.07533133,-0.9466877,0.1528598,0.2212547,-0.5982034,0.653224,-0.348493934,-0.7549298,-0.5566516,-0.3533064,-0.993759632,0.9084046,0.0422033072,-0.210922122,-0.425429225,0.649462461,0.518101,0.823253155,0.854939,0.009680629],"RowCount":10,"ColumnCount":10},"ColumnCount":10,"RowCount":10},{"Values":[-0.635923862,-0.510452747,0.766660452,-0.188156247,0.957019567,0.719004869,-0.263226151,0.628551,0.6726086,0.392746419,-0.199923158,0.4313359,-0.169564843,-0.0289474726,-0.527825356,0.376604527,-0.7904687,-0.583918333,-0.0605639219,0.282819718,-0.921081066,-0.989535332,0.573770046,-0.146387458,-0.730885,-0.4501444,-0.6305971,-0.6172707,0.08454573,0.4980099,0.4911711,-0.8572309,0.610523,0.859463,-0.103685021,0.124645591,0.175918937,0.5309751,-0.231361508,0.245456815,-0.06442273,-0.668896437,0.340558022,-0.7576573,-0.242013812,-0.7289872,0.580077648,0.274058074,0.868554831,0.138238311,0.7872751,0.932219267,-0.348985076,-0.492898583,-0.148056626,-0.05405605,-0.888849258,-0.5540631,0.0870190859,0.0229181051,0.7983172,-0.399559617,0.485373944,0.4971232,0.532134056,-0.379278779,-0.5785353,-0.131768584,0.08420861,-0.9336145,-0.889290333,0.261891574,-0.256691575,0.9566958,-0.4480332,-0.8786266,0.569982767,-0.699688435,-0.13235724,-0.5249989,0.26898548,0.5469849,0.8169098,-0.516134,0.253747433,0.225607991,-0.748800039,-0.875409365,0.038746953,-0.57756567,0.21173656,0.668233156,0.434667319,-0.37730968,0.6613798,0.810116053,-0.3490883,0.6552291,0.3814933,-0.242321849],"Storage":{"Data":[-0.635923862,-0.510452747,0.766660452,-0.188156247,0.957019567,0.719004869,-0.263226151,0.628551,0.6726086,0.392746419,-0.199923158,0.4313359,-0.169564843,-0.0289474726,-0.527825356,0.376604527,-0.7904687,-0.583918333,-0.0605639219,0.282819718,-0.921081066,-0.989535332,0.573770046,-0.146387458,-0.730885,-0.4501444,-0.6305971,-0.6172707,0.08454573,0.4980099,0.4911711,-0.8572309,0.610523,0.859463,-0.103685021,0.124645591,0.175918937,0.5309751,-0.231361508,0.245456815,-0.06442273,-0.668896437,0.340558022,-0.7576573,-0.242013812,-0.7289872,0.580077648,0.274058074,0.868554831,0.138238311,0.7872751,0.932219267,-0.348985076,-0.492898583,-0.148056626,-0.05405605,-0.888849258,-0.5540631,0.0870190859,0.0229181051,0.7983172,-0.399559617,0.485373944,0.4971232,0.532134056,-0.379278779,-0.5785353,-0.131768584,0.08420861,-0.9336145,-0.889290333,0.261891574,-0.256691575,0.9566958,-0.4480332,-0.8786266,0.569982767,-0.699688435,-0.13235724,-0.5249989,0.26898548,0.5469849,0.8169098,-0.516134,0.253747433,0.225607991,-0.748800039,-0.875409365,0.038746953,-0.57756567,0.21173656,0.668233156,0.434667319,-0.37730968,0.6613798,0.810116053,-0.3490883,0.6552291,0.3814933,-0.242321849],"RowCount":10,"ColumnCount":10},"ColumnCount":10,"RowCount":10},{"Values":[0.3110437,0.167000175,-0.5609827,0.637889147,0.5808463,-0.410507321,0.806442738,-0.5664792,0.06571019,-0.7294097,0.241396785,-0.59408,-0.7978487,0.999107361,-0.998914957,-0.218236566,0.00572812557,-0.433430552,-0.132981181,0.527644157,-0.790640354,0.744689465,-0.284366965,-0.580595,0.5665722,-0.448575616,-0.4796418,-0.0603464842,0.539804459,-0.495988,0.143169761,-0.310914874,0.9019308,0.235794663,0.8366084,0.8185704,-0.133513331,0.987266064,-0.2492503,0.26677224,0.114531636,-0.563765764,0.220418811,0.5747118,0.6028304,-0.0490378141,0.382747859,-0.4988047,0.4383864,0.9538455,0.393849343,-0.273295045,0.7896819,-0.8181882,-0.177104831,-0.907003164,0.114368558,0.7037108,-0.503294,0.497349471,-0.307918668,-0.5159087,0.6391332,0.523809433,-0.04370582,-0.108324647,0.0109401941,-0.502279043,-0.351982236,0.451728076,0.396640271,0.325427979,0.361770362,0.03759992,-0.3360244,0.892815351,0.7724538,0.45341298,-0.7740991,0.21733892,-0.450139642,0.9984672,-0.56244874,-0.186842561,0.337507457,0.86308074,0.9708078,0.7036071,-0.008358836,0.7450528,0.8810363,0.9127364,-0.186850429,-0.580499649,0.0201109648,-0.115299821,0.487483948,0.3199651,0.66779685,0.6108241],"Storage":{"Data":[0.3110437,0.167000175,-0.5609827,0.637889147,0.5808463,-0.410507321,0.806442738,-0.5664792,0.06571019,-0.7294097,0.241396785,-0.59408,-0.7978487,0.999107361,-0.998914957,-0.218236566,0.00572812557,-0.433430552,-0.132981181,0.527644157,-0.790640354,0.744689465,-0.284366965,-0.580595,0.5665722,-0.448575616,-0.4796418,-0.0603464842,0.539804459,-0.495988,0.143169761,-0.310914874,0.9019308,0.235794663,0.8366084,0.8185704,-0.133513331,0.987266064,-0.2492503,0.26677224,0.114531636,-0.563765764,0.220418811,0.5747118,0.6028304,-0.0490378141,0.382747859,-0.4988047,0.4383864,0.9538455,0.393849343,-0.273295045,0.7896819,-0.8181882,-0.177104831,-0.907003164,0.114368558,0.7037108,-0.503294,0.497349471,-0.307918668,-0.5159087,0.6391332,0.523809433,-0.04370582,-0.108324647,0.0109401941,-0.502279043,-0.351982236,0.451728076,0.396640271,0.325427979,0.361770362,0.03759992,-0.3360244,0.892815351,0.7724538,0.45341298,-0.7740991,0.21733892,-0.450139642,0.9984672,-0.56244874,-0.186842561,0.337507457,0.86308074,0.9708078,0.7036071,-0.008358836,0.7450528,0.8810363,0.9127364,-0.186850429,-0.580499649,0.0201109648,-0.115299821,0.487483948,0.3199651,0.66779685,0.6108241],"RowCount":10,"ColumnCount":10},"ColumnCount":10,"RowCount":10},{"Values":[-0.132674336,-0.1519872,-0.8549423,0.808050632,0.346233815,-0.955456734,0.905040741,0.096393466,-0.4534012,0.6696615,-0.376452565,0.302888125,-0.8473575,0.00246202946,0.00622308254,0.5211463,-0.6282809,-0.6799071,-0.08587086,-0.446006179],"Storage":{"Data":[-0.132674336,-0.1519872,-0.8549423,0.808050632,0.346233815,-0.955456734,0.905040741,0.096393466,-0.4534012,0.6696615,-0.376452565,0.302888125,-0.8473575,0.00246202946,0.00622308254,0.5211463,-0.6282809,-0.6799071,-0.08587086,-0.446006179],"RowCount":10,"ColumnCount":2},"ColumnCount":2,"RowCount":10}],"biases":[0.847533941,-0.704086065,-0.92435503,-0.163576961],"fitness":252.328766,"generation":0,"index":0,"parentA":null,"parentB":null,"mutatedWeights":0,"previousFitness":-1.0}