{"inputLayer":{"Values":[0.0484612249,0.0481759831,0.0481268242,0.584667563,0.7492846,0.7448158,0.7424489,0.6019606,0.185902551,0.108609416,0.0768855,0.0597119667,0.0489993244,0.041715987,0.0364713669,0.0325384922,0.0295006856,0.0271022432,0.0251777824,0.023615839,0.02233878,0.0212911088,0.0204323512,0.0197325554,0.0191693753,0.01872613,0.0183904655,0.0181534868,0.0180091411,0.0179538336],"Storage":{"Data":[0.0484612249,0.0481759831,0.0481268242,0.584667563,0.7492846,0.7448158,0.7424489,0.6019606,0.185902551,0.108609416,0.0768855,0.0597119667,0.0489993244,0.041715987,0.0364713669,0.0325384922,0.0295006856,0.0271022432,0.0251777824,0.023615839,0.02233878,0.0212911088,0.0204323512,0.0197325554,0.0191693753,0.01872613,0.0183904655,0.0181534868,0.0180091411,0.0179538336],"RowCount":1,"ColumnCount":30},"ColumnCount":30,"RowCount":1},"hiddenLayers":[{"Values":[-0.7632971,-0.715257347,-0.5640872,-0.402377516,-0.7923359,-0.5882086,0.481940478,-0.2516403,-0.962291241,-0.468541384],"Storage":{"Data":[-0.7632971,-0.715257347,-0.5640872,-0.402377516,-0.7923359,-0.5882086,0.481940478,-0.2516403,-0.962291241,-0.468541384],"RowCount":1,"ColumnCount":10},"ColumnCount":10,"RowCount":1},{"Values":[-0.989275157,0.96224463,0.9004789,0.987292469,0.5227653,-0.186876923,0.591140151,0.744566858,0.8981314,0.6401149],"Storage":{"Data":[-0.989275157,0.96224463,0.9004789,0.987292469,0.5227653,-0.186876923,0.591140151,0.744566858,0.8981314,0.6401149],"RowCount":1,"ColumnCount":10},"ColumnCount":10,"RowCount":1},{"Values":[-0.9421146,0.146346733,-0.9290125,-0.7073826,-0.206421375,-0.750207067,-0.9044228,0.9343903,-0.7994191,-0.9129257],"Storage":{"Data":[-0.9421146,0.146346733,-0.9290125,-0.7073826,-0.206421375,-0.750207067,-0.9044228,0.9343903,-0.7994191,-0.9129257],"RowCount":1,"ColumnCount":10},"ColumnCount":10,"RowCount":1}],"outputLayer":{"Values":[-0.06290749,-0.7673638],"Storage":{"Data":[-0.06290749,-0.7673638],"RowCount":1,"ColumnCount":2},"ColumnCount":2,"RowCount":1},"weights":[{"Values":[0.54632473,0.850409746,0.3755674,-0.4934982,-0.380948424,-0.4011649,0.4043958,0.8346648,-0.874928,0.0910095,0.751211166,0.6458175,0.373402566,0.952409,0.004590392,0.412257165,-0.807631,-0.932878,-0.7920518,-0.4762689,0.0456184149,-0.9434793,-0.9899428,0.204642177,0.178964257,-0.15050447,0.643781662,-0.354751,-0.39051044,0.0639044046,-0.693163633,0.9626062,-0.339130759,0.510830641,-0.903521538,-0.946506739,0.677540064,0.7842519,-0.5871637,0.1973666,0.9775157,-0.1979953,0.6200888,0.811830759,0.1748563,0.5948887,0.100584388,0.73996377,0.490501851,0.00164759159,0.645788431,-0.149785161,0.219124913,0.7562344,-0.409470916,-0.168608069,-0.886734962,0.7544539,0.9730694,-0.137722373,-0.481711984,-0.820960045,-0.857811,0.501134634,-0.08555114,0.7602136,-0.09571898,-0.5417087,0.0636543,-0.596925,0.975937843,-0.77001,-0.7741246,-0.221422315,0.959341764,-0.9244878,0.82159853,-0.09912455,0.435160369,-0.6252146,0.9154694,0.3312039,0.463335,0.7736182,0.8404577,-0.8580878,0.29266426,-0.569367647,-0.6448493,-0.0337530375,0.8964033,0.7890887,0.3845646,-0.781671047,0.85061574,-0.452286839,0.5515828,0.104105592,-0.0609191656,0.979643345,0.495725363,-0.7987697,0.714785337,-0.56145525,0.938568354,-0.175424457,0.311435431,0.1625427,-0.945640564,-0.9887812,0.269848078,-0.166854739,0.30831334,0.529509068,-0.514071,-0.661869049,-0.962960243,-0.5810015,0.0541218519,0.8571782,0.588086843,0.540132046,-0.940364361,-0.261028171,-0.189143777,-0.95366025,0.680886745,-0.03385079,0.9990258,0.772553444,0.5231378,0.491349429,0.7069509,-0.318921447,0.437408179,-0.699625,-0.89901495,0.4004533,-0.141613364,-0.464558721,-0.922655344,0.538207769,0.274712056,0.9095063,0.182193875,0.5803323,0.487882584,0.765034437,-0.8084705,-0.489731431,-0.730628252,-0.928817034,0.37561056,-0.162643075,0.23540318,-0.359010816,0.489445657,0.140032887,0.6889181,-0.450800776,0.9377079,0.265224427,0.340874642,-0.345213532,-0.7147422,0.4366915,-0.5472672,-0.8395879,-0.8832507,0.0110656023,-0.5127268,-0.637951136,-0.7755933,-0.7003777,-0.01025784,0.90142107,0.8213904,-0.9335568,-0.6808469,0.017978549,0.9366658,-0.8768985,-0.330706239,-0.112727046,0.448708743,0.481900424,0.7064223,0.151007533,0.6731956,-0.601673365,0.5889096,0.599182844,0.716893435,0.11908257,-0.505512238,0.5639498,0.7137289,-0.7970865,-0.102945685,0.373013467,0.804997444,-0.8151586,-0.332939029,0.070062995,0.94242,0.05008781,0.4008505,-0.001560092,0.833775759,-0.5685189,0.241852164,-0.2203008,0.606502533,-0.146333814,-0.5659094,0.504174948,0.7090597,-0.339361548,0.8339138,0.726282358,0.8241019,0.891736269,0.961382866,-0.5938425,0.59848547,0.6034639,-0.115954995,0.197286963,0.193247914,0.721702337,-0.3875314,0.830647945,0.269036978,-0.614825249,0.5025208,0.274837464,-0.0713790655,0.59131813,-0.209287524,-0.963225842,-0.420850158,-0.653890133,-0.7646315,0.173026443,-0.872899055,-0.104123712,-0.8326876,0.3759105,-0.08462918,-0.406339526,0.669659138,-0.273000121,-0.5411866,-0.574667931,0.1007992,0.846415758,0.798724651,0.9370043,0.17326057,0.447583169,0.8737223,0.441781,0.5204332,-0.499770045,-0.240326285,-0.020132184,0.9371836,-0.281343341,-0.9694352,0.83588624,-0.698719263,0.38039276,-0.639348269,0.672683239,-0.231059432,0.1557244,0.049000144,0.5222237,-0.648095369,-0.9689462,0.469995469,0.234651208,0.3010628,-0.3896891,-0.6110625,-0.764066935,-0.2852577,0.1413511,-0.9349539,0.51579833,0.3568599,0.872506142,-0.718574762,0.310070485,0.189868808,-0.8370633,0.4195256,0.02181089,0.0528539419,-0.244941592],"Storage":{"Data":[0.54632473,0.850409746,0.3755674,-0.4934982,-0.380948424,-0.4011649,0.4043958,0.8346648,-0.874928,0.0910095,0.751211166,0.6458175,0.373402566,0.952409,0.004590392,0.412257165,-0.807631,-0.932878,-0.7920518,-0.4762689,0.0456184149,-0.9434793,-0.9899428,0.204642177,0.178964257,-0.15050447,0.643781662,-0.354751,-0.39051044,0.0639044046,-0.693163633,0.9626062,-0.339130759,0.510830641,-0.903521538,-0.946506739,0.677540064,0.7842519,-0.5871637,0.1973666,0.9775157,-0.1979953,0.6200888,0.811830759,0.1748563,0.5948887,0.100584388,0.73996377,0.490501851,0.00164759159,0.645788431,-0.149785161,0.219124913,0.7562344,-0.409470916,-0.168608069,-0.886734962,0.7544539,0.9730694,-0.137722373,-0.481711984,-0.820960045,-0.857811,0.501134634,-0.08555114,0.7602136,-0.09571898,-0.5417087,0.0636543,-0.596925,0.975937843,-0.77001,-0.7741246,-0.221422315,0.959341764,-0.9244878,0.82159853,-0.09912455,0.435160369,-0.6252146,0.9154694,0.3312039,0.463335,0.7736182,0.8404577,-0.8580878,0.29266426,-0.569367647,-0.6448493,-0.0337530375,0.8964033,0.7890887,0.3845646,-0.781671047,0.85061574,-0.452286839,0.5515828,0.104105592,-0.0609191656,0.979643345,0.495725363,-0.7987697,0.714785337,-0.56145525,0.938568354,-0.175424457,0.311435431,0.1625427,-0.945640564,-0.9887812,0.269848078,-0.166854739,0.30831334,0.529509068,-0.514071,-0.661869049,-0.962960243,-0.5810015,0.0541218519,0.8571782,0.588086843,0.540132046,-0.940364361,-0.261028171,-0.189143777,-0.95366025,0.680886745,-0.03385079,0.9990258,0.772553444,0.5231378,0.491349429,0.7069509,-0.318921447,0.437408179,-0.699625,-0.89901495,0.4004533,-0.141613364,-0.464558721,-0.922655344,0.538207769,0.274712056,0.9095063,0.182193875,0.5803323,0.487882584,0.765034437,-0.8084705,-0.489731431,-0.730628252,-0.928817034,0.37561056,-0.162643075,0.23540318,-0.359010816,0.489445657,0.140032887,0.6889181,-0.450800776,0.9377079,0.265224427,0.340874642,-0.345213532,-0.7147422,0.4366915,-0.5472672,-0.8395879,-0.8832507,0.0110656023,-0.5127268,-0.637951136,-0.7755933,-0.7003777,-0.01025784,0.90142107,0.8213904,-0.9335568,-0.6808469,0.017978549,0.9366658,-0.8768985,-0.330706239,-0.112727046,0.448708743,0.481900424,0.7064223,0.151007533,0.6731956,-0.601673365,0.5889096,0.599182844,0.716893435,0.11908257,-0.505512238,0.5639498,0.7137289,-0.7970865,-0.102945685,0.373013467,0.804997444,-0.8151586,-0.332939029,0.070062995,0.94242,0.05008781,0.4008505,-0.001560092,0.833775759,-0.5685189,0.241852164,-0.2203008,0.606502533,-0.146333814,-0.5659094,0.504174948,0.7090597,-0.339361548,0.8339138,0.726282358,0.8241019,0.891736269,0.961382866,-0.5938425,0.59848547,0.6034639,-0.115954995,0.197286963,0.193247914,0.721702337,-0.3875314,0.830647945,0.269036978,-0.614825249,0.5025208,0.274837464,-0.0713790655,0.59131813,-0.209287524,-0.963225842,-0.420850158,-0.653890133,-0.7646315,0.173026443,-0.872899055,-0.104123712,-0.8326876,0.3759105,-0.08462918,-0.406339526,0.669659138,-0.273000121,-0.5411866,-0.574667931,0.1007992,0.846415758,0.798724651,0.9370043,0.17326057,0.447583169,0.8737223,0.441781,0.5204332,-0.499770045,-0.240326285,-0.020132184,0.9371836,-0.281343341,-0.9694352,0.83588624,-0.698719263,0.38039276,-0.639348269,0.672683239,-0.231059432,0.1557244,0.049000144,0.5222237,-0.648095369,-0.9689462,0.469995469,0.234651208,0.3010628,-0.3896891,-0.6110625,-0.764066935,-0.2852577,0.1413511,-0.9349539,0.51579833,0.3568599,0.872506142,-0.718574762,0.310070485,0.189868808,-0.8370633,0.4195256,0.02181089,0.0528539419,-0.244941592],"RowCount":30,"ColumnCount":10},"ColumnCount":10,"RowCount":30},{"Values":[0.839296341,0.9826782,-0.4312395,0.643190145,0.597530365,0.150725,0.09526408,-0.669599533,0.990415335,0.710056543,0.370935172,-0.419373631,0.693007469,-0.963182,0.310169429,-0.8144336,-0.329330325,-0.850968838,-0.882660151,-0.9449997,-0.991803169,0.2883775,-0.663985252,-0.588289,0.6439588,-0.788107634,-0.821933031,-0.3182448,-0.2657627,-0.08248675,0.585001469,-0.9228935,0.0014642477,0.133079886,-0.9282179,-0.193581462,0.352680176,-0.07187998,-0.666591644,-0.6554477,0.7525165,0.0125621557,-0.1641792,-0.410617,0.489443272,0.204342484,0.335934848,0.9718659,-0.821121,-0.6939924,0.759325266,-0.8307216,0.6759412,0.225422263,0.259425372,0.756953955,-0.939562559,0.6669216,-0.7414317,-0.950290442,-0.55005,-0.9534719,0.5998006,-0.5274527,0.446199864,0.9792037,-0.429375529,0.299906939,-0.363062739,-0.395309567,0.243117929,0.3424897,-0.415147662,-0.8460393,0.02973783,-0.155022264,-0.05969751,-0.08791387,-0.74640274,0.73348546,-0.1275779,0.634140253,-0.7031586,-0.2724582,0.300141543,-0.659897566,0.34894225,0.694294453,-0.691383839,-0.260930419,0.893177748,-0.4639467,-0.786710262,-0.4176222,0.652835846,0.0657748,0.247352481,-0.173459411,-0.278235078,-0.5139468],"Storage":{"Data":[0.839296341,0.9826782,-0.4312395,0.643190145,0.597530365,0.150725,0.09526408,-0.669599533,0.990415335,0.710056543,0.370935172,-0.419373631,0.693007469,-0.963182,0.310169429,-0.8144336,-0.329330325,-0.850968838,-0.882660151,-0.9449997,-0.991803169,0.2883775,-0.663985252,-0.588289,0.6439588,-0.788107634,-0.821933031,-0.3182448,-0.2657627,-0.08248675,0.585001469,-0.9228935,0.0014642477,0.133079886,-0.9282179,-0.193581462,0.352680176,-0.07187998,-0.666591644,-0.6554477,0.7525165,0.0125621557,-0.1641792,-0.410617,0.489443272,0.204342484,0.335934848,0.9718659,-0.821121,-0.6939924,0.759325266,-0.8307216,0.6759412,0.225422263,0.259425372,0.756953955,-0.939562559,0.6669216,-0.7414317,-0.950290442,-0.55005,-0.9534719,0.5998006,-0.5274527,0.446199864,0.9792037,-0.429375529,0.299906939,-0.363062739,-0.395309567,0.243117929,0.3424897,-0.415147662,-0.8460393,0.02973783,-0.155022264,-0.05969751,-0.08791387,-0.74640274,0.73348546,-0.1275779,0.634140253,-0.7031586,-0.2724582,0.300141543,-0.659897566,0.34894225,0.694294453,-0.691383839,-0.260930419,0.893177748,-0.4639467,-0.786710262,-0.4176222,0.652835846,0.0657748,0.247352481,-0.173459411,-0.278235078,-0.5139468],"RowCount":10,"ColumnCount":10},"ColumnCount":10,"RowCount":10},{"Values":[-0.634376764,0.280208558,0.515048742,-0.8154216,-0.5553975,0.2150954,-0.3691727,-0.103409886,-0.7977774,-0.730931044,-0.240411878,0.7434926,-0.1816181,-0.7706692,0.539210558,0.836473,0.952648163,0.353482932,-0.2437998,-0.17506063,0.137577176,-0.964310169,0.184914947,0.552711964,0.4362721,-0.458281636,-0.320144057,-0.00205647945,-0.6425407,-0.53562,0.9760978,0.2430712,0.404933423,-0.30015552,-0.626712561,0.110354543,-0.7405038,0.3152201,0.822650433,0.150387645,0.458743066,-0.207287431,0.150827765,0.3914034,0.05114329,-0.34659183,0.372695416,0.1509589,0.406035155,-0.570171356,0.972550869,-0.0402525663,-0.709581137,0.173729539,-0.385254025,0.168100238,0.08400333,0.0424176455,0.574123144,0.9890561,0.239746928,-0.80442667,-0.311095119,0.08367026,-0.122814536,0.195631385,-0.643730164,0.5437145,0.5412333,-0.303951621,-0.0529652834,-0.453162074,0.305574864,0.98249054,-0.355467677,0.7758436,-0.1842364,0.8410952,0.800714731,0.6671202,0.260606974,0.72333765,-0.740321636,0.3401594,-0.6946571,0.4500818,0.7824266,-0.687109232,0.4477367,-0.9496689,0.713216543,-0.461815,-0.181011081,-0.5093856,0.628191233,0.006127,0.247446179,0.9615395,-0.657975435,0.273144454],"Storage":{"Data":[-0.634376764,0.280208558,0.515048742,-0.8154216,-0.5553975,0.2150954,-0.3691727,-0.103409886,-0.7977774,-0.730931044,-0.240411878,0.7434926,-0.1816181,-0.7706692,0.539210558,0.836473,0.952648163,0.353482932,-0.2437998,-0.17506063,0.137577176,-0.964310169,0.184914947,0.552711964,0.4362721,-0.458281636,-0.320144057,-0.00205647945,-0.6425407,-0.53562,0.9760978,0.2430712,0.404933423,-0.30015552,-0.626712561,0.110354543,-0.7405038,0.3152201,0.822650433,0.150387645,0.458743066,-0.207287431,0.150827765,0.3914034,0.05114329,-0.34659183,0.372695416,0.1509589,0.406035155,-0.570171356,0.972550869,-0.0402525663,-0.709581137,0.173729539,-0.385254025,0.168100238,0.08400333,0.0424176455,0.574123144,0.9890561,0.239746928,-0.80442667,-0.311095119,0.08367026,-0.122814536,0.195631385,-0.643730164,0.5437145,0.5412333,-0.303951621,-0.0529652834,-0.453162074,0.305574864,0.98249054,-0.355467677,0.7758436,-0.1842364,0.8410952,0.800714731,0.6671202,0.260606974,0.72333765,-0.740321636,0.3401594,-0.6946571,0.4500818,0.7824266,-0.687109232,0.4477367,-0.9496689,0.713216543,-0.461815,-0.181011081,-0.5093856,0.628191233,0.006127,0.247446179,0.9615395,-0.657975435,0.273144454],"RowCount":10,"ColumnCount":10},"ColumnCount":10,"RowCount":10},{"Values":[0.106395125,-0.3831271,0.0351525545,0.120805383,-0.993507862,-0.427439332,-0.8908129,0.451815575,0.3942859,0.19424212,-0.4008273,-0.9205446,0.254567116,-0.916932344,0.3651683,0.8779676,-0.784071445,0.953938961,0.793612242,-0.8772657,0.354161233,-0.8350818,0.0118480921,-0.6522982,0.5491946,0.198907733,-0.2950343,-0.183849216,-0.5822947,-0.115923285,-0.2068311,0.199432254,-0.938564062,-0.5180495,0.1031636,-0.458457351,-0.645775557,-0.0119663477,0.03941834,0.6478617,-0.877175331,0.994000435,-0.5563257,0.8402746,-0.6039276,0.6753714,-0.502344131,0.4076521,-0.164830565,-0.7178798,0.799002647,-0.5811229,0.831824541,0.6920254,0.7488787,-0.8581934,0.354113549,0.30069086,-0.338196874,-0.451319575,0.312874764,0.6810546,0.247003913,-0.680356741,-0.178204417,-0.756851435,0.009796262,0.2181822,-0.7834346,0.34728,-0.6520152,-0.12503159,-0.370967746,-0.213807225,-0.831240654,0.07462013,-0.933887243,-0.293812156,0.6335113,0.179835916,-0.07021153,0.8504021,0.309880942,-0.3244468,-0.9481137,0.219546676,0.912233353,-0.936599255,-0.982810736,0.8264725,-0.4124664,-0.29971087,-0.3575107,-0.6645739,-0.114081979,0.8981621,0.219556212,-0.247551084,0.9278374,-0.795537],"Storage":{"Data":[0.106395125,-0.3831271,0.0351525545,0.120805383,-0.993507862,-0.427439332,-0.8908129,0.451815575,0.3942859,0.19424212,-0.4008273,-0.9205446,0.254567116,-0.916932344,0.3651683,0.8779676,-0.784071445,0.953938961,0.793612242,-0.8772657,0.354161233,-0.8350818,0.0118480921,-0.6522982,0.5491946,0.198907733,-0.2950343,-0.183849216,-0.5822947,-0.115923285,-0.2068311,0.199432254,-0.938564062,-0.5180495,0.1031636,-0.458457351,-0.645775557,-0.0119663477,0.03941834,0.6478617,-0.877175331,0.994000435,-0.5563257,0.8402746,-0.6039276,0.6753714,-0.502344131,0.4076521,-0.164830565,-0.7178798,0.799002647,-0.5811229,0.831824541,0.6920254,0.7488787,-0.8581934,0.354113549,0.30069086,-0.338196874,-0.451319575,0.312874764,0.6810546,0.247003913,-0.680356741,-0.178204417,-0.756851435,0.009796262,0.2181822,-0.7834346,0.34728,-0.6520152,-0.12503159,-0.370967746,-0.213807225,-0.831240654,0.07462013,-0.933887243,-0.293812156,0.6335113,0.179835916,-0.07021153,0.8504021,0.309880942,-0.3244468,-0.9481137,0.219546676,0.912233353,-0.936599255,-0.982810736,0.8264725,-0.4124664,-0.29971087,-0.3575107,-0.6645739,-0.114081979,0.8981621,0.219556212,-0.247551084,0.9278374,-0.795537],"RowCount":10,"ColumnCount":10},"ColumnCount":10,"RowCount":10},{"Values":[0.5406072,0.209955812,0.193920255,0.135383725,-0.245994925,0.825824261,-0.9832897,-0.8455539,-0.4037329,-0.15908134,0.510302067,0.6352534,-0.286989331,0.5272515,-0.7585561,-0.209951758,0.936936855,-0.85967207,0.845857143,-0.8762579],"Storage":{"Data":[0.5406072,0.209955812,0.193920255,0.135383725,-0.245994925,0.825824261,-0.9832897,-0.8455539,-0.4037329,-0.15908134,0.510302067,0.6352534,-0.286989331,0.5272515,-0.7585561,-0.209951758,0.936936855,-0.85967207,0.845857143,-0.8762579],"RowCount":10,"ColumnCount":2},"ColumnCount":2,"RowCount":10}],"biases":[-0.9192333,0.381019562,-0.502311,0.693066359],"fitness":404.696472,"generation":0,"index":0,"parentA":null,"parentB":null,"mutatedWeights":0,"previousFitness":-1.0}