{"inputLayer":{"Values":[0.0,0.0,0.0,0.0,0.0,0.0,0.0,0.670245,0.0,0.0,0.63524276,0.0,0.0,0.6295553,0.0,0.0,0.0,0.0,0.0,0.0,0.0,0.0,0.0,0.0,0.0,0.0173429921,0.0174955036,0.0177378878,0.0180763658,0.0185199734],"Storage":{"Data":[0.0,0.0,0.0,0.0,0.0,0.0,0.0,0.670245,0.0,0.0,0.63524276,0.0,0.0,0.6295553,0.0,0.0,0.0,0.0,0.0,0.0,0.0,0.0,0.0,0.0,0.0,0.0173429921,0.0174955036,0.0177378878,0.0180763658,0.0185199734],"RowCount":1,"ColumnCount":30},"ColumnCount":30,"RowCount":1},"hiddenLayers":[{"Values":[-0.87745297,0.0502963439,-0.6669137,-0.106099524,0.32754907,-0.495176852,0.354636878,-0.225924075,-0.355012536,-0.5132306],"Storage":{"Data":[-0.87745297,0.0502963439,-0.6669137,-0.106099524,0.32754907,-0.495176852,0.354636878,-0.225924075,-0.355012536,-0.5132306],"RowCount":1,"ColumnCount":10},"ColumnCount":10,"RowCount":1},{"Values":[0.332954526,-0.6220626,-0.6743312,0.9329153,-0.631351352,0.610779166,-0.0135481264,0.7202422,-0.4775059,0.234428629],"Storage":{"Data":[0.332954526,-0.6220626,-0.6743312,0.9329153,-0.631351352,0.610779166,-0.0135481264,0.7202422,-0.4775059,0.234428629],"RowCount":1,"ColumnCount":10},"ColumnCount":10,"RowCount":1},{"Values":[0.3741394,0.0155425668,0.9455907,0.475243539,0.839594066,-0.25703004,0.0471967,0.97068584,-0.96961087,0.0202072766],"Storage":{"Data":[0.3741394,0.0155425668,0.9455907,0.475243539,0.839594066,-0.25703004,0.0471967,0.97068584,-0.96961087,0.0202072766],"RowCount":1,"ColumnCount":10},"ColumnCount":10,"RowCount":1}],"outputLayer":{"Values":[-0.373779833,-0.2040099],"Storage":{"Data":[-0.373779833,-0.2040099],"RowCount":1,"ColumnCount":2},"ColumnCount":2,"RowCount":1},"weights":[{"Values":[-0.97428894,-0.9759371,-0.5946753,-0.07140839,0.7953415,0.591724157,-0.7900865,-0.359448075,0.269927949,-0.91901207,-0.6830504,0.451802,-0.118997931,-0.969693661,-0.9485071,0.8493643,-0.5552888,-0.9726474,0.935103655,0.9064982,0.425388068,-0.5010221,-0.6629667,-0.159775138,-0.346167922,0.913650751,0.406365126,0.667533159,-0.383312345,-0.130099416,-0.333658576,0.194513917,-0.7657125,0.829265356,0.03399408,0.728865862,-0.5277922,-0.377601743,-0.243425012,0.808536768,0.8230598,-0.122202039,-0.730027437,-0.183977485,-0.106863856,0.792021751,0.5644922,-0.346544385,0.877781153,0.32064268,-0.2755617,0.5270133,-0.0481590033,0.3293397,0.4743857,-0.6212747,-0.0120991468,0.26810953,0.631933451,-0.21803391,0.640059233,-0.299525142,0.511019,-0.4229678,0.760712147,0.868649,-0.832409859,-0.366222739,0.9103112,0.134492755,-0.2180177,0.435205668,0.5370016,-0.562353134,-0.868063,0.271965474,0.644319057,-0.002941966,0.355102032,-0.7699692,0.817292,-0.45059,-0.2548691,0.07054508,-0.282787919,-0.03977835,0.318495959,0.5768223,0.389262646,0.8326118,-0.112189889,-0.6996362,0.476016,0.7797599,-0.993497133,0.3074269,0.470985621,-0.119709611,0.929986,-0.002731204,0.5398698,-0.444361567,0.45875904,-0.496476531,0.5572901,-0.2746941,-0.056956172,-0.199074626,-0.998652,0.5479083,0.642674446,0.105598807,0.8907521,-0.7300148,-0.3683077,0.671545267,0.7184901,0.166319251,0.8789954,0.272026032,-0.112856746,0.9774823,-0.0834597349,0.49221465,0.3706431,-0.21017158,0.203083634,0.7658174,-0.6428695,-0.314722419,-0.8401859,-0.3911096,0.8468797,0.6959772,-0.6723933,0.238850474,0.64310956,-0.09172046,0.165089965,0.630471,-0.836082935,0.996191263,0.9949441,0.9051509,0.06763399,0.5888815,0.331246585,0.433880776,-0.5410545,0.71195364,0.0214327574,-0.8063314,-0.4109422,0.0168918371,0.867390156,-0.756278038,0.159197688,-0.8009956,-0.7329242,-0.0864764452,0.642119646,-0.9349637,0.8048887,-0.462553382,0.766299,-0.7059865,-0.931204557,-0.5247848,0.745553732,0.2723975,-0.359670758,-0.8918097,-0.6477058,0.860420465,0.267052621,-0.6141825,-0.948596,0.473381966,0.180484891,-0.1292783,0.150822759,0.470647782,-0.593219757,-0.453653216,0.68178916,0.340964526,0.392715663,0.7278087,0.311337441,-0.214119077,-0.0140241385,-0.560105562,0.656551361,0.00299823284,0.799353361,0.333272427,0.02204597,-0.2178396,-0.5718117,0.8839865,-0.849298239,-0.6019666,0.324861974,0.229346633,0.102343917,0.9125905,0.09525621,-0.6068244,-0.959468365,0.286788434,-0.13670671,0.972283363,-0.752613068,0.851242542,-0.08808577,0.317189425,0.256361216,-0.754863,-0.8169782,-0.817074537,0.09957278,-0.955458641,0.05498302,0.4951944,-0.551063061,0.2658622,0.0229192972,-0.639048338,0.6477406,0.9154451,0.803582668,-0.243553519,-0.7102313,0.660268068,0.376179427,0.24177444,-0.08311546,0.112780452,-0.186025262,0.238647342,0.417572469,0.283816785,0.497625083,-0.4109608,-0.9829292,0.194261909,0.5651076,0.357509822,-0.415518165,-0.395376563,-0.694244862,-0.911549568,0.553348064,-0.08480871,0.983937263,0.566936,0.3242421,0.525200367,0.118981242,-0.204130769,0.562614441,-0.358774543,-0.9536717,0.433717459,-0.986328363,0.58584,-0.726701,-0.0617152452,0.0367895365,-0.4669999,-0.164383531,0.5451882,0.27540943,0.1135596,0.0144227743,0.290095061,0.079185605,-0.6675825,-0.008888364,0.633709431,0.310005158,0.228678823,0.0986686945,-0.3393408,-0.381894469,-0.76597,-0.1460594,0.136754632,0.6775851,0.85203743,-0.6693001,-0.427702069,-0.9022212,-0.2318126,0.331605166,0.494922847,-0.236987948,-0.9087422,0.81865716,-0.0715194941],"Storage":{"Data":[-0.97428894,-0.9759371,-0.5946753,-0.07140839,0.7953415,0.591724157,-0.7900865,-0.359448075,0.269927949,-0.91901207,-0.6830504,0.451802,-0.118997931,-0.969693661,-0.9485071,0.8493643,-0.5552888,-0.9726474,0.935103655,0.9064982,0.425388068,-0.5010221,-0.6629667,-0.159775138,-0.346167922,0.913650751,0.406365126,0.667533159,-0.383312345,-0.130099416,-0.333658576,0.194513917,-0.7657125,0.829265356,0.03399408,0.728865862,-0.5277922,-0.377601743,-0.243425012,0.808536768,0.8230598,-0.122202039,-0.730027437,-0.183977485,-0.106863856,0.792021751,0.5644922,-0.346544385,0.877781153,0.32064268,-0.2755617,0.5270133,-0.0481590033,0.3293397,0.4743857,-0.6212747,-0.0120991468,0.26810953,0.631933451,-0.21803391,0.640059233,-0.299525142,0.511019,-0.4229678,0.760712147,0.868649,-0.832409859,-0.366222739,0.9103112,0.134492755,-0.2180177,0.435205668,0.5370016,-0.562353134,-0.868063,0.271965474,0.644319057,-0.002941966,0.355102032,-0.7699692,0.817292,-0.45059,-0.2548691,0.07054508,-0.282787919,-0.03977835,0.318495959,0.5768223,0.389262646,0.8326118,-0.112189889,-0.6996362,0.476016,0.7797599,-0.993497133,0.3074269,0.470985621,-0.119709611,0.929986,-0.002731204,0.5398698,-0.444361567,0.45875904,-0.496476531,0.5572901,-0.2746941,-0.056956172,-0.199074626,-0.998652,0.5479083,0.642674446,0.105598807,0.8907521,-0.7300148,-0.3683077,0.671545267,0.7184901,0.166319251,0.8789954,0.272026032,-0.112856746,0.9774823,-0.0834597349,0.49221465,0.3706431,-0.21017158,0.203083634,0.7658174,-0.6428695,-0.314722419,-0.8401859,-0.3911096,0.8468797,0.6959772,-0.6723933,0.238850474,0.64310956,-0.09172046,0.165089965,0.630471,-0.836082935,0.996191263,0.9949441,0.9051509,0.06763399,0.5888815,0.331246585,0.433880776,-0.5410545,0.71195364,0.0214327574,-0.8063314,-0.4109422,0.0168918371,0.867390156,-0.756278038,0.159197688,-0.8009956,-0.7329242,-0.0864764452,0.642119646,-0.9349637,0.8048887,-0.462553382,0.766299,-0.7059865,-0.931204557,-0.5247848,0.745553732,0.2723975,-0.359670758,-0.8918097,-0.6477058,0.860420465,0.267052621,-0.6141825,-0.948596,0.473381966,0.180484891,-0.1292783,0.150822759,0.470647782,-0.593219757,-0.453653216,0.68178916,0.340964526,0.392715663,0.7278087,0.311337441,-0.214119077,-0.0140241385,-0.560105562,0.656551361,0.00299823284,0.799353361,0.333272427,0.02204597,-0.2178396,-0.5718117,0.8839865,-0.849298239,-0.6019666,0.324861974,0.229346633,0.102343917,0.9125905,0.09525621,-0.6068244,-0.959468365,0.286788434,-0.13670671,0.972283363,-0.752613068,0.851242542,-0.08808577,0.317189425,0.256361216,-0.754863,-0.8169782,-0.817074537,0.09957278,-0.955458641,0.05498302,0.4951944,-0.551063061,0.2658622,0.0229192972,-0.639048338,0.6477406,0.9154451,0.803582668,-0.243553519,-0.7102313,0.660268068,0.376179427,0.24177444,-0.08311546,0.112780452,-0.186025262,0.238647342,0.417572469,0.283816785,0.497625083,-0.4109608,-0.9829292,0.194261909,0.5651076,0.357509822,-0.415518165,-0.395376563,-0.694244862,-0.911549568,0.553348064,-0.08480871,0.983937263,0.566936,0.3242421,0.525200367,0.118981242,-0.204130769,0.562614441,-0.358774543,-0.9536717,0.433717459,-0.986328363,0.58584,-0.726701,-0.0617152452,0.0367895365,-0.4669999,-0.164383531,0.5451882,0.27540943,0.1135596,0.0144227743,0.290095061,0.079185605,-0.6675825,-0.008888364,0.633709431,0.310005158,0.228678823,0.0986686945,-0.3393408,-0.381894469,-0.76597,-0.1460594,0.136754632,0.6775851,0.85203743,-0.6693001,-0.427702069,-0.9022212,-0.2318126,0.331605166,0.494922847,-0.236987948,-0.9087422,0.81865716,-0.0715194941],"RowCount":30,"ColumnCount":10},"ColumnCount":10,"RowCount":30},{"Values":[-0.275576,-0.493453622,-0.8301048,-0.889505148,-0.307461858,0.3081939,-0.004345536,0.7577064,0.0117982626,0.501486063,-0.0220817327,0.794646263,0.718101,0.0613113642,-0.2373544,0.712918043,-0.780426264,-0.886714935,0.8817036,-0.6802819,0.603788137,0.690849543,0.006560445,0.7739451,-0.564172,-0.676796436,-0.0211673975,-0.64977,0.9695537,0.6845293,-0.855438232,-0.5494647,-0.896900654,-0.5007899,-0.003444314,0.486721,0.212591767,-0.2591902,0.731537342,-0.9844744,0.226157308,-0.619547844,0.02564776,0.972074747,0.265194148,0.493376,0.6582818,-0.420722127,0.9240761,0.790293,-0.104655623,-0.5795231,-0.59493804,-0.9252105,-0.584872,0.504541159,0.480062932,0.5978739,-0.688320637,-0.283753276,0.40711233,0.9079311,-0.118321776,0.920762539,-0.490866065,-0.7037325,-0.8592546,0.503456831,-0.7864542,-0.194020629,-0.07292259,0.0609411,-0.409306169,-0.664602041,0.793868065,0.5914824,-0.3317188,-0.963148832,0.6642158,-0.969401836,0.575418949,0.0364283323,-0.5123415,0.169418931,-0.5822234,-0.377900958,-0.510720253,0.7171583,0.0638455153,0.272371739,-0.28435576,0.955847263,0.584699154,-0.5531199,-0.4283136,-0.03880894,-0.324970126,-0.6825099,-0.7803707,0.177615762],"Storage":{"Data":[-0.275576,-0.493453622,-0.8301048,-0.889505148,-0.307461858,0.3081939,-0.004345536,0.7577064,0.0117982626,0.501486063,-0.0220817327,0.794646263,0.718101,0.0613113642,-0.2373544,0.712918043,-0.780426264,-0.886714935,0.8817036,-0.6802819,0.603788137,0.690849543,0.006560445,0.7739451,-0.564172,-0.676796436,-0.0211673975,-0.64977,0.9695537,0.6845293,-0.855438232,-0.5494647,-0.896900654,-0.5007899,-0.003444314,0.486721,0.212591767,-0.2591902,0.731537342,-0.9844744,0.226157308,-0.619547844,0.02564776,0.972074747,0.265194148,0.493376,0.6582818,-0.420722127,0.9240761,0.790293,-0.104655623,-0.5795231,-0.59493804,-0.9252105,-0.584872,0.504541159,0.480062932,0.5978739,-0.688320637,-0.283753276,0.40711233,0.9079311,-0.118321776,0.920762539,-0.490866065,-0.7037325,-0.8592546,0.503456831,-0.7864542,-0.194020629,-0.07292259,0.0609411,-0.409306169,-0.664602041,0.793868065,0.5914824,-0.3317188,-0.963148832,0.6642158,-0.969401836,0.575418949,0.0364283323,-0.5123415,0.169418931,-0.5822234,-0.377900958,-0.510720253,0.7171583,0.0638455153,0.272371739,-0.28435576,0.955847263,0.584699154,-0.5531199,-0.4283136,-0.03880894,-0.324970126,-0.6825099,-0.7803707,0.177615762],"RowCount":10,"ColumnCount":10},"ColumnCount":10,"RowCount":10},{"Values":[-0.3116609,-0.209137321,0.183047891,0.7661295,0.358990639,-0.232705474,-0.122087121,-0.359501958,0.579259634,0.0389882326,-0.346650481,0.300309867,0.49109742,-0.0382610559,0.122740626,-0.119321942,-0.7337713,0.508085,0.587091446,0.300050944,-0.409792066,-0.371397138,-0.6269531,0.5543089,-0.5149176,0.569477558,0.319274157,-0.6008761,0.0238376856,-0.5956843,0.6066754,-0.684829,0.206773639,0.212055564,0.5351386,-0.394867539,-0.424578071,-0.482188344,0.1955055,0.7475219,-0.609648466,0.259721249,-0.866783142,-0.8026018,0.223952413,0.275318116,0.8031683,0.9586141,-0.948134661,-0.339421868,-0.7923558,0.696607351,0.739354134,-0.11041677,-0.175694585,-0.278560519,-0.5934794,0.517926455,0.172827125,0.5432606,0.7754841,0.6309035,0.205088019,-0.5163908,0.48698017,0.667170048,-0.778604269,0.562871,0.345565766,-0.93230176,-0.505342245,0.118244767,-0.0839797258,0.8148298,-0.6916275,0.1719886,0.5999248,0.267223567,-0.357478976,-0.157030463,-0.9492657,-0.249508023,0.8764205,-0.376011729,0.8121598,-0.534276247,0.297791928,-0.732854366,0.223791242,-0.744022369,-0.6809604,0.593204,-0.6924689,0.5723572,0.8335552,0.7605219,0.6295996,-0.6910062,0.6752074,-0.6982465],"Storage":{"Data":[-0.3116609,-0.209137321,0.183047891,0.7661295,0.358990639,-0.232705474,-0.122087121,-0.359501958,0.579259634,0.0389882326,-0.346650481,0.300309867,0.49109742,-0.0382610559,0.122740626,-0.119321942,-0.7337713,0.508085,0.587091446,0.300050944,-0.409792066,-0.371397138,-0.6269531,0.5543089,-0.5149176,0.569477558,0.319274157,-0.6008761,0.0238376856,-0.5956843,0.6066754,-0.684829,0.206773639,0.212055564,0.5351386,-0.394867539,-0.424578071,-0.482188344,0.1955055,0.7475219,-0.609648466,0.259721249,-0.866783142,-0.8026018,0.223952413,0.275318116,0.8031683,0.9586141,-0.948134661,-0.339421868,-0.7923558,0.696607351,0.739354134,-0.11041677,-0.175694585,-0.278560519,-0.5934794,0.517926455,0.172827125,0.5432606,0.7754841,0.6309035,0.205088019,-0.5163908,0.48698017,0.667170048,-0.778604269,0.562871,0.345565766,-0.93230176,-0.505342245,0.118244767,-0.0839797258,0.8148298,-0.6916275,0.1719886,0.5999248,0.267223567,-0.357478976,-0.157030463,-0.9492657,-0.249508023,0.8764205,-0.376011729,0.8121598,-0.534276247,0.297791928,-0.732854366,0.223791242,-0.744022369,-0.6809604,0.593204,-0.6924689,0.5723572,0.8335552,0.7605219,0.6295996,-0.6910062,0.6752074,-0.6982465],"RowCount":10,"ColumnCount":10},"ColumnCount":10,"RowCount":10},{"Values":[-0.2352835,0.9696102,0.476780862,-0.6530001,0.9170568,0.716731548,-0.192281842,-0.267419457,0.81937623,0.582527161,0.9073167,0.9760313,-0.355768561,0.432640046,-0.5505791,-0.6551728,0.5689728,-0.341857553,0.112613082,-0.150746942,-0.626182556,0.142515063,-0.274271846,0.232475162,-0.436062217,-0.8932562,-0.8447752,0.6117501,0.7238066,-0.81988287,0.361504763,0.859647036,0.847257853,0.109496713,-0.7352071,0.9350672,-0.7601056,-0.195390821,-0.1222316,0.661777735,0.250731915,-0.144726634,0.155008674,0.623673439,-0.886546135,-0.2890929,-0.290773749,0.179616332,-0.10345757,-0.5735004,-0.2629012,-0.5879915,-0.225228667,0.584106445,-0.3891486,-0.9409511,0.769577742,-0.411903977,-0.80758214,0.229529023,0.222461343,0.7472527,-0.5948112,-0.09857476,0.92852664,-0.749591351,-0.0234640837,-0.116040826,-0.535908,0.621851444,-0.126806617,0.0585762262,-0.762857437,0.048506856,-0.421928763,0.6874287,-0.295042872,-0.452875018,-0.25779593,0.690634,-0.8815286,-0.357350945,-0.19381988,0.449707717,-0.240956426,-0.9554136,0.4600229,0.0294209719,-0.8145685,0.00147736073,-0.9072871,0.8248379,0.223990083,0.299509257,0.874157667,0.0322371721,0.520564556,0.672905445,0.6565709,0.979622364],"Storage":{"Data":[-0.2352835,0.9696102,0.476780862,-0.6530001,0.9170568,0.716731548,-0.192281842,-0.267419457,0.81937623,0.582527161,0.9073167,0.9760313,-0.355768561,0.432640046,-0.5505791,-0.6551728,0.5689728,-0.341857553,0.112613082,-0.150746942,-0.626182556,0.142515063,-0.274271846,0.232475162,-0.436062217,-0.8932562,-0.8447752,0.6117501,0.7238066,-0.81988287,0.361504763,0.859647036,0.847257853,0.109496713,-0.7352071,0.9350672,-0.7601056,-0.195390821,-0.1222316,0.661777735,0.250731915,-0.144726634,0.155008674,0.623673439,-0.886546135,-0.2890929,-0.290773749,0.179616332,-0.10345757,-0.5735004,-0.2629012,-0.5879915,-0.225228667,0.584106445,-0.3891486,-0.9409511,0.769577742,-0.411903977,-0.80758214,0.229529023,0.222461343,0.7472527,-0.5948112,-0.09857476,0.92852664,-0.749591351,-0.0234640837,-0.116040826,-0.535908,0.621851444,-0.126806617,0.0585762262,-0.762857437,0.048506856,-0.421928763,0.6874287,-0.295042872,-0.452875018,-0.25779593,0.690634,-0.8815286,-0.357350945,-0.19381988,0.449707717,-0.240956426,-0.9554136,0.4600229,0.0294209719,-0.8145685,0.00147736073,-0.9072871,0.8248379,0.223990083,0.299509257,0.874157667,0.0322371721,0.520564556,0.672905445,0.6565709,0.979622364],"RowCount":10,"ColumnCount":10},"ColumnCount":10,"RowCount":10},{"Values":[0.495892733,-0.490633845,0.388825148,-0.0323091745,-0.3775915,0.249458671,-0.395346045,0.3191652,0.00213491917,-0.119267821,0.604725838,-0.855031,0.191346765,-0.5014005,-0.29084003,-0.238813281,0.6710453,0.06439626,-0.592077255,-0.9611902],"Storage":{"Data":[0.495892733,-0.490633845,0.388825148,-0.0323091745,-0.3775915,0.249458671,-0.395346045,0.3191652,0.00213491917,-0.119267821,0.604725838,-0.855031,0.191346765,-0.5014005,-0.29084003,-0.238813281,0.6710453,0.06439626,-0.592077255,-0.9611902],"RowCount":10,"ColumnCount":2},"ColumnCount":2,"RowCount":10}],"biases":[-0.104748607,0.168788075,0.669116259,-0.828559637],"fitness":636.552246,"generation":0,"index":0,"parentA":null,"parentB":null,"mutatedWeights":0,"previousFitness":-1.0}